svm_type c_svc
kernel_type rbf
gamma 0.03125
nr_class 3
total_sv 223
rho 2.07505 25.5239 74.7836
label 2 1 0
nr_sv 64 49 110
SV
0 8192 1:0.32785 2:0.433648 3:0.585824 4:0.2415924 5:0.286632 6:0.48455267 7:0.71558 8:0.206622 9:0.19173533 10:0.16577 11:0.44004333 12:0.12172667 13:0.35726611 
258.8901464156065 8192 1:0.382498 2:0.570272 3:0.686256 4:0.135088 5:0.2218128 6:0.427188 7:0.77251333 8:0.44747333 9:0.31889467 10:0.290429 11:0.50705667 12:0.0054800333 13:0.33611056 
0 8192 1:0.3181892 2:0.3365288 3:0.574912 4:0.1347892 5:0.2172972 6:0.033261 7:0.46922067 8:0.33634267 9:0.18512267 10:0.109161 11:0.32546533 12:0.063965 13:0.14257778 
8192 8192 1:0.3174712 2:0.442996 3:0.574588 4:0.1666404 5:0.2260072 6:0.55723133 7:0.67586667 8:0.252162 9:0.15734267 10:0.26719533 11:0.37979 12:0.24335167 13:0.25573333 
0 8192 1:0.208976 2:0.240344 3:0.506988 4:0.0607324 5:0.1376984 6:0.15912667 7:0.60469 8:0.37833867 9:0.332764 10:0.14117567 11:0.46053667 12:0.24157222 13:0.57647222 
0 8192 1:0.2010672 2:0.3717348 3:0.45956 4:0.197268 5:0.3150576 6:0.44678733 7:0.66194333 8:0.0087877333 9:0.20412867 10:0.17431633 11:0.33425333 12:0.19009611 13:0.33622389 
0 8192 1:0.3325568 2:0.428516 3:0.5194 4:0.1936788 5:0.2147952 6:0.18835933 7:0.63139667 8:0.25632867 9:0.24405867 10:0.183132 11:0.38354333 12:0.032721278 13:0.34264833 
0 8192 1:0.295064 2:0.393598 3:0.630292 4:0.0543144 5:0.2663844 6:0.167878 7:0.62811667 8:0.403746 9:0.32644067 10:0.201079 11:0.47008 12:0.048236222 13:0.19572611 
287.7064075161406 8192 1:0.3553764 2:0.358404 3:0.6265 4:0.0899024 5:0.1350436 6:0.10034733 7:0.46196267 8:0.44316 9:0.37479267 10:0.19824467 11:0.41711667 12:0.080373889 13:0.065575 
0 8192 1:0.253632 2:0.45568 3:0.476752 4:0.1988448 5:0.2359492 6:0.472242 7:0.70741333 8:0.12819067 9:0.042965867 10:0.23019933 11:0.36787 12:0.11204611 13:0.37194 
8192 8192 1:0.3137852 2:0.52264 3:0.694056 4:0.2483724 5:0.3783652 6:0.6973 7:0.63380667 8:0.45736867 9:0.554362 10:0.54294333 11:0.48454 12:0.60944444 13:0.31613278 
8192 8192 1:0.3668348 2:0.585172 3:0.612096 4:0.17378 5:0.24321 6:0.662586 7:0.46187133 8:0.47164933 9:0.37962133 10:0.49236667 11:0.33039433 12:0.44097111 13:0.12059333 
8192 8192 1:0.3421172 2:0.586796 3:0.621772 4:0.1986648 5:0.2415564 6:0.71579333 7:0.500378 8:0.317346 9:0.272174 10:0.46866 11:0.324269 12:0.40142778 13:0.068128333 
8192 8192 1:0.3453168 2:0.487644 3:0.572264 4:0.2313268 5:0.2711836 6:0.421756 7:0.59685467 8:0.255134 9:0.282456 10:0.180423 11:0.40597333 12:0.0039040667 13:0.31742833 
0 8192 1:0.3136396 2:0.460288 3:0.516012 4:0.1987112 5:0.2572876 6:0.41339267 7:0.578482 8:0.253336 9:0.16198467 10:0.18400533 11:0.36139 12:0.041888556 13:0.31697889 
8192 8192 1:0.1797624 2:0.435048 3:0.503496 4:0.01181796 5:0.084752 6:0.50092 7:0.621478 8:0.29820067 9:0.41696467 10:0.36711333 11:0.41308333 12:0.64990556 13:0.26784056 
8192 8192 1:0.357062 2:0.566908 3:0.571492 4:0.2299184 5:0.237668 6:0.60898467 7:0.462286 8:0.43106467 9:0.35519733 10:0.45953 11:0.28651167 12:0.41170944 13:0.071205 
0 8192 1:0.3297408 2:0.513476 3:0.628564 4:0.1782716 5:0.2543388 6:0.436278 7:0.68738667 8:0.295646 9:0.209378 10:0.21839533 11:0.44306 12:0.023545444 13:0.31313667 
0 8192 1:0.3483632 2:0.480704 3:0.518976 4:0.1708216 5:0.1813396 6:0.26078333 7:0.54780067 8:0.34553267 9:0.30846133 10:0.25104567 11:0.37197333 12:0.036352 13:0.31573667 
0 8192 1:0.2133844 2:0.3158964 3:0.509088 4:0.22792 5:0.324128 6:0.25711333 7:0.60497333 8:0.20000467 9:0.254994 10:0.013501333 11:0.37382667 12:0.013882556 13:0.33557333 
8192 8192 1:0.2705112 2:0.434112 3:0.461888 4:0.165932 5:0.2730836 6:0.49853 7:0.42415867 8:0.291252 9:0.32917733 10:0.36757667 11:0.175627 12:0.45248833 13:0.061848889 
0 8192 1:0.3025464 2:0.410796 3:0.6301 4:0.1350388 5:0.2788144 6:0.50320467 7:0.71189333 8:0.28896067 9:0.143192 10:0.185751 11:0.42737 12:0.17099556 13:0.27388222 
0 8192 1:0.260246 2:0.3062916 3:0.542176 4:0.1480216 5:0.1623564 6:0.28893467 7:0.59984133 8:0.19624133 9:0.184174 10:0.13636567 11:0.37499667 12:0.11169278 13:0.25035944 
0 8192 1:0.3637232 2:0.5725 3:0.62002 4:0.1779308 5:0.2599324 6:0.43712 7:0.72518667 8:0.41878667 9:0.27548467 10:0.26149467 11:0.47813 12:0.022867833 13:0.37559222 
8192 8192 1:0.219132 2:0.2544876 3:0.351998 4:0.056282 5:0.0690616 6:0.47005467 7:0.29276933 8:0.28099667 9:0.25228067 10:0.19331667 11:0.24644267 12:0.35242722 13:0.0067302778 
0 8192 1:0.3618188 2:0.466736 3:0.649128 4:0.1884704 5:0.3243244 6:0.57408467 7:0.76561333 8:0.32882267 9:0.205882 10:0.19352067 11:0.48351333 12:0.14594667 13:0.35106056 
2885.150207987466 8192 1:0.2620492 2:0.42682 3:0.499596 4:0.2326096 5:0.2348396 6:0.42642933 7:0.55555467 8:0.28157 9:0.312508 10:0.16368467 11:0.41812 12:0.029693278 13:0.42823778 
8192 8192 1:0.3312928 2:0.42448 3:0.567208 4:0.0399172 5:0.0473472 6:0.16252533 7:0.46106267 8:0.48579267 9:0.51098933 10:0.32084367 11:0.44128 12:0.045538611 13:0.12772889 
0 8192 1:0.3594552 2:0.51928 3:0.5822 4:0.2572952 5:0.3331868 6:0.41701267 7:0.69618667 8:0.41161 9:0.421288 10:0.18538133 11:0.52641333 12:0.093613889 13:0.48909056 
0 8192 1:0.3982056 2:0.46034 3:0.631096 4:0.2816452 5:0.313796 6:0.30812267 7:0.66153733 8:0.22669333 9:0.213216 10:0.12956067 11:0.41358667 12:0.043528111 13:0.27450778 
0 4719.136637938811 1:0.3363772 2:0.3654276 3:0.536136 4:0.1042984 5:0.1894436 6:0.082392667 7:0.42751267 8:0.44359 9:0.29209467 10:0.18177433 11:0.34996 12:0.15752 13:0.24253111 
0 8192 1:0.3244068 2:0.43454 3:0.496084 4:0.2552808 5:0.2914152 6:0.51152867 7:0.62827267 8:0.12551933 9:0.225874 10:0.15814467 11:0.34102333 12:0.11204778 13:0.30781389 
8192 8192 1:0.3115208 2:0.569516 3:0.572828 4:0.1305612 5:0.1689024 6:0.46555533 7:0.67304667 8:0.30538867 9:0.30969267 10:0.34104 11:0.41741333 12:0.035680944 13:0.28292333 
8192 8192 1:0.3127112 2:0.475584 3:0.531508 4:0.1786804 5:0.2594692 6:0.636358 7:0.63014667 8:0.26033667 9:0.19247867 10:0.243368 11:0.40060667 12:0.18039167 13:0.35543833 
0 8192 1:0.2934016 2:0.368148 3:0.470396 4:0.1845048 5:0.2079328 6:0.14139867 7:0.50660467 8:0.24253333 9:0.30286267 10:0.16587667 11:0.34956333 12:0.094130556 13:0.34886889 
2570.482259443188 8192 1:0.297612 2:0.462096 3:0.512892 4:0.1511952 5:0.1562288 6:0.33803 7:0.613532 8:0.28589933 9:0.24228667 10:0.257526 11:0.3662 12:0.032836611 13:0.29960944 
1273.048274569621 8192 1:0.3123748 2:0.3241548 3:0.604392 4:0.2597756 5:0.2956444 6:0.583688 7:0.68276 8:0.16117133 9:0.16724733 10:0.211166 11:0.41883667 12:0.26662389 13:0.30548944 
4955.870390492682 8192 1:0.3568156 2:0.419112 3:0.6165 4:0.2419184 5:0.2925972 6:0.11051467 7:0.48917933 8:0.262812 9:0.12109867 10:0.11576033 11:0.304027 12:0.052200389 13:0.12666611 
0 8192 1:0.2797564 2:0.2256516 3:0.601456 4:0.217724 5:0.288688 6:0.092559333 7:0.587784 8:0.12397867 9:0.087462667 10:0.022530467 11:0.31906133 12:0.037140944 13:0.16574222 
0 8192 1:0.313616 2:0.42404 3:0.438332 4:0.1313968 5:0.2486568 6:0.18452533 7:0.519362 8:0.325258 9:0.13698467 10:0.15606667 11:0.301565 12:0.064505 13:0.30914833 
0 8192 1:0.2668548 2:0.427284 3:0.567524 4:0.317892 5:0.3620416 6:0.64089267 7:0.72172667 8:0.22751067 9:0.27421333 10:0.21617933 11:0.4666 12:0.20677278 13:0.40077333 
0 8192 1:0.3615632 2:0.2831992 3:0.597292 4:0.190068 5:0.2752076 6:0.21674133 7:0.43270333 8:0.39257 9:0.37118667 10:0.078336333 11:0.39747 12:0.095595556 13:0.27398111 
4904.242290527905 8192 1:0.2174992 2:0.2038756 3:0.416304 4:0.0524536 5:0.0653172 6:0.174048 7:0.332482 8:0.28931067 9:0.25527 10:0.13044267 11:0.29377533 12:0.20437444 13:0.063696667 
0 8192 1:0.0664012 2:0.2788768 3:0.407304 4:0.1693416 5:0.2477192 6:0.54633667 7:0.58730933 8:0.38083 9:0.48931067 10:0.031495067 11:0.48053667 12:0.025913056 13:0.88802778 
0 8192 1:0.3431968 2:0.25115 3:0.661972 4:0.1302676 5:0.2028044 6:0.16737 7:0.53298733 8:0.45494333 9:0.32235733 10:0.080530667 11:0.41859333 12:0.11870111 13:0.17929944 
0 8192 1:0.23902 2:0.262708 3:0.504844 4:0.1452092 5:0.172614 6:0.12070867 7:0.49057733 8:0.33209933 9:0.23716133 10:0.097903667 11:0.36313667 12:0.11330833 13:0.31699944 
0 8192 1:0.229276 2:0.3220504 3:0.435196 4:0.195738 5:0.2272764 6:0.246326 7:0.43546667 8:0.249406 9:0.18506867 10:0.080312333 11:0.30639267 12:0.020583389 13:0.32024667 
0 8192 1:0.3834476 2:0.436984 3:0.62254 4:0.2704288 5:0.2774812 6:0.48753333 7:0.632118 8:0.326922 9:0.22210267 10:0.151765 11:0.40762667 12:0.068341111 13:0.27389667 
0 8192 1:0.3375064 2:0.350984 3:0.570068 4:0.1930752 5:0.2738592 6:0.0385722 7:0.43964 8:0.24312467 9:0.18768133 10:0.091379667 11:0.31268533 12:0.042934056 13:0.065112778 
0 8192 1:0.2819208 2:0.463872 3:0.599488 4:0.2180356 5:0.3322092 6:0.50339467 7:0.7126 8:0.37918467 9:0.54444 10:0.177869 11:0.54047333 12:0.073958333 13:0.51670167 
5256.148168567967 8192 1:0.3034916 2:0.443912 3:0.559156 4:0.1939528 5:0.2146088 6:0.571084 7:0.66333133 8:0.216502 9:0.181508 10:0.249206 11:0.39982 12:0.18806611 13:0.32012444 
0 8192 1:0.3015516 2:0.46552 3:0.527228 4:0.1780344 5:0.2123064 6:0.40461867 7:0.60557 8:0.291588 9:0.27813467 10:0.21210833 11:0.42026333 12:0.018725722 13:0.40476833 
0 8192 1:0.3844724 2:0.510952 3:0.582288 4:0.224838 5:0.288696 6:0.309148 7:0.68033333 8:0.332448 9:0.21239667 10:0.18602733 11:0.41533333 12:0.017290722 13:0.32684778 
0 8192 1:0.2633992 2:0.405456 3:0.57384 4:0.410276 5:0.416868 6:0.43633133 7:0.70306 8:0.31658867 9:0.30488067 10:0.10763667 11:0.43028 12:0.10115944 13:0.33544056 
0 8192 1:0.3420872 2:0.521936 3:0.542608 4:0.2239528 5:0.225968 6:0.39507467 7:0.63438467 8:0.35394133 9:0.3903 10:0.260859 11:0.4623 12:0.089570556 13:0.45158722 
0 8192 1:0.3051968 2:0.45002 3:0.571812 4:0.1896828 5:0.234336 6:0.37581933 7:0.621528 8:0.25097333 9:0.24366 10:0.17976633 11:0.41911667 12:0.0038620333 13:0.33072111 
0 8192 1:0.3035752 2:0.420376 3:0.569644 4:0.1780172 5:0.1962452 6:0.42458933 7:0.68608 8:0.25821933 9:0.211626 10:0.206093 11:0.41868 12:0.080181667 13:0.33531222 
7274.671988123479 8192 1:0.3143044 2:0.499336 3:0.57198 4:0.1352796 5:0.184464 6:0.45432333 7:0.64787333 8:0.376602 9:0.343198 10:0.265714 11:0.46881 12:0.052765278 13:0.4384 
3164.653231760251 8192 1:0.2650052 2:0.448672 3:0.507404 4:0.2383724 5:0.2543188 6:0.652746 7:0.66408267 8:0.10625333 9:0.0361178 10:0.27911233 11:0.34863333 12:0.26097833 13:0.30693944 
0 8192 1:0.3528628 2:0.459684 3:0.626664 4:0.1921152 5:0.2514892 6:0.38346733 7:0.70634667 8:0.29502333 9:0.230212 10:0.18207733 11:0.44922333 12:0.062155 13:0.314465 
6224.218530996097 8192 1:0.3763176 2:0.499712 3:0.64518 4:0.11929 5:0.1487172 6:0.23846467 7:0.59289933 8:0.53375933 9:0.488508 10:0.325056 11:0.51587333 12:0.20206222 13:0.40720778 
8192 8192 1:0.2996904 2:0.434848 3:0.574272 4:0.2330836 5:0.2513328 6:0.63169933 7:0.70359333 8:0.113596 9:0.094646667 10:0.299202 11:0.34300333 12:0.30891722 13:0.21806167 
0 4277.17862502886 1:0.208548 2:0.2631196 3:0.423336 4:0.0637336 5:0.1539524 6:0.109042 7:0.47527467 8:0.29577733 9:0.282504 10:0.19533933 11:0.35642 12:0.34260278 13:0.49795833 
0 8192 1:0.2464864 2:0.3108796 3:0.3591328 4:0.1887384 5:0.2389404 6:0.14 7:0.53882933 8:0.16234733 9:0.019366 10:0.069938 11:0.27512367 12:0.050533889 13:0.35175444 
-0 8192 1:0.3126532 2:0.4457 3:0.757056 4:0.472976 5:0.484892 6:0.69134 7:0.74577333 8:0.61269667 9:0.663168 10:0.64383 11:0.53226 12:0.63586667 13:0.31727611 
-8192 8192 1:0.250402 2:0.442276 3:0.456256 4:0.1724016 5:0.2988056 6:0.58380667 7:0.59694067 8:0.14569533 9:0.16730333 10:0.32961133 11:0.21808667 12:0.35081944 13:0.18271111 
-8192 2141.947012851149 1:0.276946 2:0.42554 3:0.552072 4:0.0758992 5:0.1224304 6:0.51952733 7:0.459356 8:0.36763333 9:0.34702467 10:0.35311667 11:0.39746 12:0.46400611 13:0.21601389 
-8192 8192 1:0.3616708 2:0.434712 3:0.620828 4:0.1037504 5:0.1194776 6:0.30505867 7:0.48194333 8:0.43045067 9:0.405512 10:0.269347 11:0.42665333 12:0.100125 13:0.064343889 
-8192 8192 1:0.3839816 2:0.630216 3:0.644552 4:0.202714 5:0.243208 6:0.49574133 7:0.71289333 8:0.32675267 9:0.27166667 10:0.32334067 11:0.45353333 12:0.022645667 13:0.30694389 
-0 8192 1:0.3180436 2:0.512112 3:0.769576 4:0.2421604 5:0.2827484 6:0.67229333 7:0.75255333 8:0.46269 9:0.47841067 10:0.52943333 11:0.54878 12:0.60379444 13:0.31535611 
-8192 8192 1:0.3648844 2:0.454468 3:0.605388 4:0.2034328 5:0.2470096 6:0.6427 7:0.62014867 8:0.29430333 9:0.19645867 10:0.30992033 11:0.35013667 12:0.30475222 13:0.11154 
-0 8192 1:0.3436272 2:0.515324 3:0.788052 4:0.3236744 5:0.366026 6:0.69924667 7:0.74184667 8:0.531358 9:0.504028 10:0.58356667 11:0.53236 12:0.5802 13:0.29464167 
-3018.972217282025 8192 1:0.3481152 2:0.516708 3:0.568328 4:0.1351884 5:0.296666 6:0.589024 7:0.50861733 8:0.39267933 9:0.31369867 10:0.4058 11:0.228539 12:0.38803278 13:0.0032912167 
-0 8192 1:0.3120764 2:0.513688 3:0.693036 4:0.2393664 5:0.2501048 6:0.68315333 7:0.63550467 8:0.44114667 9:0.42425733 10:0.52345667 11:0.48680667 12:0.58543889 13:0.30245333 
-8192 8192 1:0.2605388 2:0.419392 3:0.468496 4:0.1918364 5:0.2443768 6:0.360624 7:0.58809467 8:0.26624733 9:0.32382133 10:0.171431 11:0.41086667 12:0.066417778 13:0.47660333 
-0 8192 1:0.3386092 2:0.509624 3:0.796476 4:0.1659608 5:0.2864888 6:0.67653333 7:0.76442667 8:0.493716 9:0.415392 10:0.49655667 11:0.53828667 12:0.54816778 13:0.27240444 
-8192 8192 1:0.3133876 2:0.458788 3:0.516752 4:0.1940824 5:0.2258312 6:0.27303533 7:0.64698467 8:0.372872 9:0.343892 10:0.23787167 11:0.46884 12:0.16496333 13:0.49794889 
-0 8192 1:0.311574 2:0.554056 3:0.643184 4:0.1160192 5:0.1748508 6:0.603524 7:0.59049867 8:0.33407467 9:0.30842067 10:0.40793667 11:0.39701 12:0.28365278 13:0.015160333 
-5520.846863077038 8192 1:0.3506432 2:0.517048 3:0.731416 4:0.1347548 5:0.2474748 6:0.67556 7:0.63816867 8:0.44830933 9:0.42295067 10:0.4542 11:0.50549 12:0.52646056 13:0.26598722 
-0 8192 1:0.3612572 2:0.521592 3:0.628288 4:0.2011624 5:0.2382552 6:0.63635067 7:0.47227467 8:0.37033133 9:0.37234867 10:0.43861 11:0.35513667 12:0.44588833 13:0.12106 
-519.1427985046918 8192 1:0.260132 2:0.519804 3:0.563948 4:0.1929944 5:0.1933744 6:0.62035267 7:0.53504867 8:0.28931 9:0.29253733 10:0.44705 11:0.33347 12:0.46876778 13:0.14609056 
-0 8192 1:0.314574 2:0.516276 3:0.772852 4:0.347688 5:0.3508888 6:0.71732 7:0.76384667 8:0.52742 9:0.58168133 10:0.60574 11:0.53982 12:0.62841667 13:0.31250611 
-0 8192 1:0.3892944 2:0.56512 3:0.83878 4:0.2081964 5:0.2230948 6:0.68409333 7:0.74965333 8:0.48468533 9:0.42806333 10:0.49219667 11:0.56211 12:0.47436944 13:0.20634833 
-0 6861.602071704248 1:0.2281536 2:0.2960216 3:0.3891452 4:0.1733664 5:0.2090388 6:0.493322 7:0.275596 8:0.13842333 9:0.065009067 10:0.266042 11:0.150248 12:0.42364 13:0.0092572778 
-0 8192 1:0.3977008 2:0.619224 3:0.838804 4:0.21042 5:0.2242136 6:0.74094667 7:0.73581333 8:0.49891867 9:0.47069 10:0.54734 11:0.57392 12:0.49734833 13:0.23329889 
-0 8192 1:0.3595048 2:0.52864 3:0.558844 4:0.2274756 5:0.2718096 6:0.62456933 7:0.48137733 8:0.33450067 9:0.38457267 10:0.43463667 11:0.25017267 12:0.42086389 13:0.020470333 
-5566.46573103427 8192 1:0.3384228 2:0.524348 3:0.614588 4:0.1186876 5:0.1815484 6:0.584344 7:0.47571 8:0.48786267 9:0.38666267 10:0.44117333 11:0.39080667 12:0.45364 13:0.17370056 
-0 2933.498057103347 1:0.3758104 2:0.627424 3:0.638148 4:0.2146236 5:0.2365196 6:0.67510667 7:0.49678267 8:0.334646 9:0.30158667 10:0.45904 11:0.33624667 12:0.33608611 13:0.031803222 
-8192 8192 1:0.3185004 2:0.558968 3:0.57154 4:0.2380668 5:0.2879752 6:0.49441267 7:0.62627133 8:0.23212533 9:0.184934 10:0.22673433 11:0.40529667 12:0.00039846056 13:0.32380667 
-4278.79973294557 8192 1:0.2320244 2:0.3241684 3:0.505 4:0.2130156 5:0.2191428 6:0.437512 7:0.478794 8:0.17501867 9:0.20844933 10:0.29667067 11:0.24976033 12:0.44505389 13:0.065752222 
-0 8192 1:0.3300572 2:0.500532 3:0.775224 4:0.442508 5:0.445272 6:0.73566667 7:0.74616 8:0.529838 9:0.57066933 10:0.62789333 11:0.50455667 12:0.58834444 13:0.28427111 
-0 8192 1:0.1512596 2:0.1694936 3:0.3754612 4:0.2130452 5:0.2548092 6:0.46469467 7:0.47780733 8:0.19713067 9:0.25582333 10:0.310262 11:0.111033 12:0.85149444 13:0.058259444 
-673.7974324161157 8192 1:0.3570052 2:0.471984 3:0.477088 4:0.2382264 5:0.2414888 6:0.42378067 7:0.366934 8:0.25327 9:0.339734 10:0.30880633 11:0.19969833 12:0.28209444 13:0.039619722 
-8192 8192 1:0.2156572 2:0.488512 3:0.58358 4:0.00725208 5:0.042326 6:0.60283333 7:0.62914867 8:0.35895333 9:0.367544 10:0.41098 11:0.47984333 12:0.72050556 13:0.40617333 
-4587.074970690111 8192 1:0.339624 2:0.54924 3:0.752464 4:0.413768 5:0.429592 6:0.72212 7:0.68808 8:0.56991 9:0.64201867 10:0.64018333 11:0.50291 12:0.58308333 13:0.29543167 
-8192 8192 1:0.3381188 2:0.466764 3:0.561916 4:0.207428 5:0.2130772 6:0.67648 7:0.50076933 8:0.21781867 9:0.22328067 10:0.33120867 11:0.30199367 12:0.32161333 13:0.090626111 
-3426.504036543203 8192 1:0.2571664 2:0.2909832 3:0.4679 4:0.1453184 5:0.2270464 6:0.59728 7:0.409178 8:0.190058 9:0.052460467 10:0.24098967 11:0.219358 12:0.41561111 13:0.10418444 
-0 8192 1:0.2632864 2:0.275502 3:0.427264 4:0.1472728 5:0.2462072 6:0.38282933 7:0.27611067 8:0.19714667 9:0.0428038 10:0.192832 11:0.150886 12:0.30402 13:0.0015834944 
-3176.982095069086 8192 1:0.120868 2:0.270118 3:0.2915912 4:0.16043 5:0.213408 6:0.377818 7:0.41257733 8:0.21724333 9:0.30869067 10:0.29740767 11:0.065994667 12:0.60731111 13:0.016093722 
-8192 8192 1:0.3388128 2:0.392674 3:0.468148 4:0.1148772 5:0.1654196 6:0.23577 7:0.23107267 8:0.376804 9:0.29887533 10:0.222177 11:0.26280967 12:0.064570556 13:0.010263111 
-0 8192 1:0.386384 2:0.561924 3:0.839144 4:0.1785912 5:0.2236352 6:0.69771333 7:0.75602 8:0.45538867 9:0.508406 10:0.48539667 11:0.59760667 12:0.48671444 13:0.23484611 
-8192 8192 1:0.3355404 2:0.3996484 3:0.5651 4:0.199884 5:0.2189876 6:0.54938067 7:0.55869867 8:0.23883133 9:0.20123933 10:0.24365133 11:0.32313033 12:0.25404222 13:0.12417444 
-0 8192 1:0.3882868 2:0.61048 3:0.831504 4:0.1709356 5:0.173222 6:0.74498 7:0.7387 8:0.479836 9:0.44037 10:0.50755667 11:0.57937333 12:0.45206333 13:0.19044278 
-44.34642808180416 8192 1:0.2562988 2:0.513236 3:0.641856 4:0.02330004 5:0.0494196 6:0.56039267 7:0.64601067 8:0.39904133 9:0.36236133 10:0.38651333 11:0.50412 12:0.00128625 13:0.22325 
-0 8192 1:0.3360524 2:0.508464 3:0.78032 4:0.3211436 5:0.3610104 6:0.72199333 7:0.74322667 8:0.50294 9:0.479874 10:0.57998333 11:0.52684667 12:0.58940556 13:0.29411611 
-6717.514726396123 0 1:0.3274652 2:0.56168 3:0.572492 4:0.0050802 5:0.02079728 6:0.40935 7:0.64588733 8:0.53740667 9:0.53311867 10:0.46383333 11:0.46160667 12:0.0068134444 13:0.14614833 
-0 3470.462371540315 1:0.300762 2:0.408048 3:0.58066 4:0.1131252 5:0.1627608 6:0.59574333 7:0.47585467 8:0.35185667 9:0.23440267 10:0.30892267 11:0.34826333 12:0.36260556 13:0.0038984222 
-8192 8192 1:0.2584788 2:0.464224 3:0.492676 4:0.175264 5:0.2139032 6:0.41117133 7:0.60535133 8:0.20884667 9:0.23392067 10:0.213775 11:0.38893 12:0.015356944 13:0.39561278 
-0 315.8405726597772 1:0.393262 2:0.570748 3:0.584272 4:0.1630316 5:0.25559 6:0.63202 7:0.32398867 8:0.41835933 9:0.33533333 10:0.43409333 11:0.301217 12:0.35669167 13:0.10258167 
-0 8192 1:0.3425024 2:0.50402 3:0.779372 4:0.3559044 5:0.406528 6:0.66778 7:0.72894667 8:0.54067733 9:0.59699467 10:0.58314 11:0.55093667 12:0.59823889 13:0.32017389 
-1524.634864360341 8192 1:0.1871156 2:0.45242 3:0.512524 4:0.2060624 5:0.2622232 6:0.60081933 7:0.57466067 8:0.23482933 9:0.28828 10:0.41766667 11:0.23395033 12:0.50432444 13:0.11095389 
-0 8192 1:0.3330824 2:0.456756 3:0.58662 4:0.2306732 5:0.2700108 6:0.59843267 7:0.47804133 8:0.37236267 9:0.36832267 10:0.43583 11:0.29746767 12:0.51422778 13:0.13281556 
-0 8192 1:0.3529588 2:0.552112 3:0.584728 4:0.2221036 5:0.2443964 6:0.63664867 7:0.443334 8:0.28459267 9:0.30898067 10:0.42008667 11:0.29261033 12:0.36626833 13:0.033751167 
-8192 -0 1:0.2758276 2:0.3797408 3:0.567884 4:0.1963296 5:0.2460272 6:0.48455267 7:0.71558 8:0.19605133 9:0.20691467 10:0.15034467 11:0.43992333 12:0.12697167 13:0.37959667 
-0 -1019.134906618479 1:0.32113 2:0.504584 3:0.77806 4:0.333074 5:0.3367284 6:0.70034667 7:0.76158 8:0.51115867 9:0.56285333 10:0.58385 11:0.546 12:0.62161667 13:0.31318278 
-8192 -0 1:0.3271564 2:0.456388 3:0.659464 4:0.1949844 5:0.3055272 6:0.411344 7:0.77251333 8:0.34953667 9:0.252244 10:0.127741 11:0.51238 12:0.023162056 13:0.37842722 
-8192 -0 1:0.2929404 2:0.3087252 3:0.529904 4:0.1782396 5:0.2487708 6:0.0570996 7:0.43086533 8:0.29545933 9:0.12564733 10:0.057767333 11:0.27643733 12:0.039993944 13:0.15592611 
-8192 -0 1:0.3486172 2:0.3380584 3:0.630832 4:0.1830164 5:0.2864276 6:0.50791067 7:0.62124 8:0.30697867 9:0.155112 10:0.17786133 11:0.38577333 12:0.19054278 13:0.23707944 
-8192 -7440.565685742472 1:0.324814 2:0.3746444 3:0.587192 4:0.0424132 5:0.0697144 6:0.39316133 7:0.61695 8:0.51375667 9:0.44100333 10:0.25555967 11:0.46469667 12:0.064388889 13:0.34331167 
-0 -1569.672530540734 1:0.2316632 2:0.371576 3:0.415356 4:0.3004908 5:0.3302308 6:0.52504867 7:0.38401867 8:0.36314267 9:0.334122 10:0.42938667 11:0.091959667 12:0.52385611 13:0.060442778 
-0 -8192 1:0.2317708 2:0.3716268 3:0.41536 4:0.2885712 5:0.3210516 6:0.52504867 7:0.37963267 8:0.35063667 9:0.32756067 10:0.42629 11:0.10224933 12:0.52738333 13:0.068553333 
-8192 -8192 1:0.2778096 2:0.42844 3:0.567168 4:0.1352164 5:0.16097 6:0.48639067 7:0.48525067 8:0.28750133 9:0.312368 10:0.33855 11:0.38397 12:0.39713333 13:0.18701944 
-7055.492885453981 -0 1:0.2887928 2:0.426856 3:0.622964 4:0.1087452 5:0.2857272 6:0.23970867 7:0.63323533 8:0.33161733 9:0.32117133 10:0.20133367 11:0.46589 12:0.11704167 13:0.29032611 
-8192 -0 1:0.2675176 2:0.3679936 3:0.585688 4:0.0658064 5:0.2621276 6:0.167878 7:0.62849867 8:0.384454 9:0.295276 10:0.18935533 11:0.45657333 12:0.20983944 13:0.38164278 
-8192 -0 1:0.352454 2:0.321952 3:0.610136 4:0.1221912 5:0.1261024 6:0.062590133 7:0.44121933 8:0.39161133 9:0.37739733 10:0.16331533 11:0.40506667 12:0.011229833 13:0.0511555 
-0 -1730.324359675536 1:0.3389164 2:0.5637 3:0.848768 4:0.52566 5:0.57958 6:0.71498667 7:0.8498 8:0.75889333 9:0.79604 10:0.73628333 11:0.59321333 12:0.58271667 13:0.31133944 
-0 -8192 1:0.3199088 2:0.51208 3:0.769952 4:0.3755316 5:0.3844864 6:0.66974667 7:0.75008 8:0.57144133 9:0.549586 10:0.60239667 11:0.52614333 12:0.59222222 13:0.30395889 
-8192 -0 1:0.371914 2:0.564836 3:0.628388 4:0.2331616 5:0.2595728 6:0.44107133 7:0.71289333 8:0.289222 9:0.23029933 10:0.25817267 11:0.44211667 12:0.013394222 13:0.313045 
-0 -8192 1:0.3144424 2:0.561884 3:0.701116 4:0.2865972 5:0.3250804 6:0.75224 7:0.645298 8:0.50620867 9:0.46018133 10:0.59672667 11:0.45370333 12:0.58046667 13:0.27058556 
-8192 -0 1:0.3738244 2:0.567172 3:0.586956 4:0.2416412 5:0.3375964 6:0.43599533 7:0.662586 8:0.43159133 9:0.38078067 10:0.21357533 11:0.51403333 12:0.083113333 13:0.43891111 
-8192 -0 1:0.3118804 2:0.494912 3:0.57416 4:0.1779568 5:0.2894064 6:0.44025067 7:0.57716933 8:0.34257 9:0.41097467 10:0.20383433 11:0.44895 12:0.058857778 13:0.38691167 
-1142.191265668514 -0 1:0.3611664 2:0.454652 3:0.607408 4:0.419076 5:0.4337 6:0.64361067 7:0.65258867 8:0.097184 9:0.23696533 10:0.33199167 11:0.208231 12:0.30037833 13:0.11197333 
-8192 -4438.246188079879 1:0.3646568 2:0.45466 3:0.605384 4:0.2814288 5:0.3245036 6:0.6427 7:0.62757933 8:0.21525933 9:0.068900667 10:0.32170067 11:0.29097167 12:0.313725 13:0.10087778 
-5984.869065456395 -0 1:0.3648064 2:0.455076 3:0.605208 4:0.2694484 5:0.333492 6:0.6427 7:0.626316 8:0.226144 9:0.057766533 10:0.32701333 11:0.299135 12:0.31790556 13:0.10049 
-351.0763824801845 -0 1:0.469756 2:0.439084 3:0.894836 4:0.083872 5:0.1596668 6:0.24420867 7:0.71897333 8:0.68209333 9:0.594926 10:0.31125733 11:0.65682 12:0.31009056 13:0.24533667 
-0 -8192 1:0.3366688 2:0.508128 3:0.781372 4:0.3950028 5:0.405204 6:0.69754 7:0.74246667 8:0.587148 9:0.54591533 10:0.61147 11:0.53066 12:0.59091667 13:0.30184611 
-0 -8192 1:0.3401464 2:0.511564 3:0.785092 4:0.3834424 5:0.408204 6:0.69754 7:0.74273333 8:0.57554533 9:0.561174 10:0.618 11:0.53875333 12:0.59441667 13:0.30713389 
-8192 -0 1:0.3278856 2:0.467108 3:0.627568 4:0.1967428 5:0.2581428 6:0.32655867 7:0.78431333 8:0.263044 9:0.24553733 10:0.17632533 11:0.48325 12:0.0021186111 13:0.37253167 
-516.1771777752641 -0 1:0.2567712 2:0.425908 3:0.515336 4:0.1497636 5:0.2771496 6:0.40191933 7:0.61131067 8:0.35300267 9:0.31972533 10:0.137162 11:0.46251 12:0.065381111 13:0.46555222 
-0 -8192 1:0.3119924 2:0.513568 3:0.692948 4:0.267768 5:0.310978 6:0.68315333 7:0.63550467 8:0.45733133 9:0.46203933 10:0.54274333 11:0.47781667 12:0.58776111 13:0.30472778 
-3832.992527115598 -0 1:0.341922 2:0.568488 3:0.58656 4:0.2745768 5:0.3086864 6:0.459246 7:0.71579333 8:0.26402467 9:0.24175333 10:0.21831533 11:0.47475667 12:0.0256185 13:0.39734167 
-8192 -0 1:0.2876364 2:0.459648 3:0.512176 4:0.2118308 5:0.2843488 6:0.43788067 7:0.60898467 8:0.43567333 9:0.40518667 10:0.175575 11:0.50234333 12:0.10336333 13:0.524515 
-8192 -8192 1:0.378462 2:0.448192 3:0.614588 4:0.1506128 5:0.2376904 6:0.59728667 7:0.62775933 8:0.38195333 9:0.258782 10:0.24922267 11:0.40704 12:0.21102111 13:0.22959667 
-8192 -0 1:0.3054836 2:0.3442712 3:0.492696 4:0.237908 5:0.2384436 6:0.192804 7:0.45901067 8:0.28998067 9:0.22102933 10:0.090742333 11:0.33715 12:0.028501722 13:0.30364389 
-8192 -0 1:0.2887876 2:0.3282572 3:0.482768 4:0.1860656 5:0.2030628 6:0.186938 7:0.50998467 8:0.23197333 9:0.307302 10:0.11925333 11:0.35232 12:0.020789389 13:0.33514556 
-8192 -8192 1:0.2710032 2:0.431524 3:0.462068 4:0.177976 5:0.271734 6:0.49007267 7:0.42415867 8:0.286694 9:0.34362933 10:0.36614333 11:0.18146833 12:0.44829444 13:0.061025 
-0 -3692.725440058971 1:0.2796076 2:0.40946 3:0.4142 4:0.2675064 5:0.3118816 6:0.52421133 7:0.30513067 8:0.19409067 9:0.085035333 10:0.23029267 11:0.12337233 12:0.23564556 13:0.019098111 
-8192 -0 1:0.32528 2:0.422636 3:0.51212 4:0.2046416 5:0.2410832 6:0.27387933 7:0.53498 8:0.367558 9:0.32185667 10:0.16761567 11:0.41671 12:0.0866 13:0.40805944 
-8192 -2802.766970423636 1:0.3355604 2:0.519128 3:0.5673 4:0.20736 5:0.2399492 6:0.448918 7:0.61515 8:0.35562133 9:0.25019733 10:0.23345833 11:0.41790333 12:0.0210175 13:0.34430611 
-8192 -8192 1:0.331046 2:0.514784 3:0.564224 4:0.212622 5:0.2235216 6:0.448918 7:0.61515 8:0.35815467 9:0.259748 10:0.24339167 11:0.41850667 12:0.020364444 13:0.34774556 
-3853.002864481009 -8192 1:0.2755268 2:0.411056 3:0.419732 4:0.1955716 5:0.219912 6:0.596864 7:0.38916333 8:0.13330733 9:0.25847467 10:0.292436 11:0.16699833 12:0.32485944 13:0.015958167 
-2095.430110546939 -8192 1:0.3052652 2:0.578792 3:0.59896 4:0.1451532 5:0.1858408 6:0.635594 7:0.53492733 8:0.27546067 9:0.28490067 10:0.41138333 11:0.34942 12:0.26683389 13:0.034643611 
-0 -8192 1:0.3124816 2:0.523308 3:0.693544 4:0.25622 5:0.336008 6:0.67364667 7:0.63511333 8:0.43329933 9:0.53753733 10:0.52924667 11:0.48084 12:0.57652222 13:0.294635 
-0 -6510.688781357195 1:0.3131544 2:0.523664 3:0.694216 4:0.2446972 5:0.3385764 6:0.67364667 7:0.63511333 8:0.42842667 9:0.553054 10:0.52332667 11:0.48374 12:0.57557222 13:0.29399389 
-0 -8192 1:0.3779296 2:0.5612 3:0.760552 4:0.1939412 5:0.2897684 6:0.67556 7:0.637796 8:0.41614933 9:0.49760467 10:0.47459 11:0.51403 12:0.45861778 13:0.20561667 
-1670.715965750368 -8192 1:0.3611956 2:0.52172 3:0.623536 4:0.2129856 5:0.2478156 6:0.63635067 7:0.466466 8:0.36167133 9:0.37278067 10:0.44086333 11:0.34557667 12:0.44577556 13:0.11895278 
-8192 -0 1:0.2692856 2:0.405524 3:0.547268 4:0.2024408 5:0.3105 6:0.605086 7:0.66991333 8:0.14729867 9:0.13606533 10:0.249746 11:0.38909667 12:0.26107556 13:0.32464 
-8192 -8192 1:0.2954792 2:0.455996 3:0.536628 4:0.1447848 5:0.2321372 6:0.61557533 7:0.67656667 8:0.27312333 9:0.14756267 10:0.26406267 11:0.39511667 12:0.19987222 13:0.34432556 
-0 -8192 1:0.305202 2:0.515196 3:0.77022 4:0.3036048 5:0.3409848 6:0.70844 7:0.77593333 8:0.51238467 9:0.44197 10:0.56789 11:0.51164333 12:0.57563333 13:0.28178167 
-5702.713098788383 -0 1:0.3065104 2:0.454812 3:0.600256 4:0.2213548 5:0.288054 6:0.455806 7:0.72738667 8:0.37551067 9:0.23630133 10:0.14594367 11:0.48157 12:0.047096333 13:0.39760667 
-8192 -0 1:0.3361244 2:0.557156 3:0.577772 4:0.1913676 5:0.2402084 6:0.43712 7:0.72518667 8:0.41080067 9:0.27376467 10:0.26784133 11:0.4733 12:0.0464735 13:0.420105 
-0 -5984.652009682698 1:0.3061228 2:0.514324 3:0.76908 4:0.1967564 5:0.2772572 6:0.70908667 7:0.77257333 8:0.47491133 9:0.411666 10:0.53112 11:0.53295667 12:0.58636111 13:0.29193444 
-0 -8192 1:0.192236 2:0.1421724 3:0.3319596 4:0.2465244 5:0.286002 6:0.49588333 7:0.399474 8:0.27354333 9:0.192056 10:0.321887 11:0.072811333 12:0.78571667 13:0.020368333 
-7516.757525305542 -0 1:0.3563312 2:0.423036 3:0.552384 4:0.2359208 5:0.3358044 6:0.11169133 7:0.45093267 8:0.23207667 9:0.26553933 10:0.16536067 11:0.32884567 12:0.082243889 13:0.21174556 
-8192 -0 1:0.1650128 2:0.2625096 3:0.468204 4:0.03853208 5:0.0604724 6:0.29318 7:0.61010467 8:0.30601867 9:0.19108933 10:0.17027833 11:0.37641667 12:0.077373889 13:0.39204778 
-2341.026406490948 -8192 1:0.2043636 2:0.2908296 3:0.526876 4:0.01213696 5:0.0743244 6:0.29487867 7:0.606678 8:0.323568 9:0.23057067 10:0.21704633 11:0.37778 12:0.32775167 13:0.010476278 
-0 -1388.862517337726 1:0.3899032 2:0.541564 3:0.831588 4:0.51066 5:0.520656 6:0.69134 7:0.7368 8:0.61297 9:0.65384667 10:0.64929 11:0.51413333 12:0.53055167 13:0.26496278 
-0 -8192 1:0.3905224 2:0.541824 3:0.832284 4:0.3036908 5:0.331298 6:0.69198 7:0.73698 8:0.44089 9:0.48059333 10:0.52618667 11:0.54284333 12:0.51247556 13:0.24719389 
-0 -6096.43274157542 1:0.3905224 2:0.541824 3:0.832284 4:0.1839604 5:0.2353324 6:0.69198 7:0.73698 8:0.45023333 9:0.46974933 10:0.47072667 11:0.57976667 12:0.48668944 13:0.22140722 
-0 -8192 1:0.3968348 2:0.564096 3:0.839024 4:0.1628776 5:0.22304 6:0.69198 7:0.73698 8:0.46193933 9:0.485998 10:0.46924 11:0.58674667 12:0.45189556 13:0.18928389 
-0 -8192 1:0.3974796 2:0.567264 3:0.839664 4:0.1004048 5:0.122492 6:0.69198 7:0.73698 8:0.5135 9:0.514172 10:0.45190333 11:0.62094333 12:0.39233111 13:0.12997389 
-50.91962633952198 -0 1:0.3759332 2:0.51678 3:0.807896 4:0.02982436 5:0.03580628 6:0.63960133 7:0.72069333 8:0.58851 9:0.611242 10:0.40373667 11:0.65458667 12:0.051129278 13:0.22574556 
-8192 -0 1:0.3390864 2:0.429632 3:0.559912 4:0.1982524 5:0.2525176 6:0.23064 7:0.56031467 8:0.34714267 9:0.24308467 10:0.151765 11:0.39361333 12:0.0410075 13:0.31646 
-478.5746938190959 -6043.579535981457 1:0.13068 2:0.2206712 3:0.2754112 4:0.2438268 5:0.2512764 6:0.51412533 7:0.40783067 8:0.28052933 9:0.35235533 10:0.38205333 11:0.028856967 12:0.89715556 13:0.030057778 
-5888.416219717696 -0 1:0.1319392 2:0.2204172 3:0.2230484 4:0.2348168 5:0.2630004 6:0.30402667 7:0.51306267 8:0.25478133 9:0.37684667 10:0.037552 11:0.37283 12:0.019490944 13:0.86356111 
-2590.083844250466 -0 1:0.3142316 2:0.3122024 3:0.451156 4:0.244802 5:0.3010972 6:0.013701667 7:0.26633867 8:0.17927733 9:0.041523867 10:0.014443433 11:0.15301533 12:0.0138165 13:0.091709444 
-8192 -7841.851770570046 1:0.3293916 2:0.3875088 3:0.569988 4:0.1237192 5:0.1392104 6:0.13332267 7:0.46316133 8:0.34288533 9:0.32223067 10:0.21573033 11:0.37627 12:0.041255611 13:0.094837778 
-4091.291107175016 -0 1:0.1702828 2:0.3079524 3:0.3895016 4:0.1690996 5:0.2196812 6:0.26401333 7:0.66219133 8:0.0151864 9:0.12081533 10:0.075051667 11:0.33804333 12:0.0218745 13:0.46184667 
-8192 -0 1:0.1616708 2:0.2773644 3:0.4311 4:0.1043892 5:0.1602372 6:0.275584 7:0.66466333 8:0.098897333 9:0.098422667 10:0.103512 11:0.32584533 12:0.062545556 13:0.33801222 
-8192 -5935.634907541899 1:0.1595976 2:0.277696 3:0.426532 4:0.0703668 5:0.0838968 6:0.28210333 7:0.64433533 8:0.15130867 9:0.13922533 10:0.17966367 11:0.31224133 12:0.13567222 13:0.26253 
-0 -2700.112502092577 1:0.3198296 2:0.512908 3:0.769552 4:0.2983788 5:0.320604 6:0.68409333 7:0.74965333 8:0.44342867 9:0.57360133 10:0.54386667 11:0.51749667 12:0.57755 13:0.27740444 
-0 -8192 1:0.3191004 2:0.512524 3:0.768824 4:0.1789968 5:0.187644 6:0.68409333 7:0.74965333 8:0.39536467 9:0.481182 10:0.47713667 11:0.54835 12:0.55775556 13:0.25724944 
-1353.324585139748 -0 1:0.3534468 2:0.3722032 3:0.623944 4:0.2427468 5:0.3512108 6:0.18523333 7:0.457236 8:0.28238667 9:0.19355867 10:0.019406833 11:0.28138867 12:0.0088768333 13:0.13641444 
-8192 -0 1:0.3377392 2:0.3704556 3:0.59546 4:0.1474328 5:0.2304844 6:0.054839267 7:0.49584933 8:0.389196 9:0.232192 10:0.141429 11:0.36293667 12:0.10502444 13:0.20785722 
-7536.549115376891 -8192 1:0.3467156 2:0.576532 3:0.78812 4:0.1975116 5:0.2009976 6:0.74094667 7:0.73581333 8:0.43778533 9:0.49545267 10:0.53209 11:0.55977 12:0.55094611 13:0.26582278 
-8192 -0 1:0.3617264 2:0.509268 3:0.531456 4:0.2489292 5:0.328564 6:0.45368467 7:0.626126 8:0.32527867 9:0.38707267 10:0.157984 11:0.44028333 12:0.00073015 13:0.42066056 
-8192 -4141.627372913604 1:0.3462704 2:0.552212 3:0.566736 4:0.191994 5:0.2802296 6:0.426032 7:0.584344 8:0.36919 9:0.284186 10:0.232787 11:0.42966333 12:0.051608333 13:0.36151111 
-0 -8192 1:0.3134368 2:0.560144 3:0.575576 4:0.187644 5:0.2032292 6:0.67510667 7:0.485162 8:0.322286 9:0.26826333 10:0.44453667 11:0.31404033 12:0.39978222 13:0.054107889 
-8192 -0 1:0.3069664 2:0.525764 3:0.539388 4:0.2570572 5:0.3079152 6:0.44553333 7:0.67590667 8:0.183906 9:0.32574933 10:0.20161267 11:0.42069 12:0.010346111 13:0.37989833 
-4426.634762637435 -0 1:0.2733168 2:0.3651376 3:0.540528 4:0.2325344 5:0.2530624 6:0.59432533 7:0.61930867 8:0.12334 9:0.178188 10:0.20812 11:0.36902 12:0.23930278 13:0.296245 
-8192 -591.5388545467109 1:0.2745408 2:0.408632 3:0.540948 4:0.173356 5:0.2396496 6:0.636358 7:0.63014667 8:0.19731267 9:0.182148 10:0.23135133 11:0.39118 12:0.228955 13:0.31631056 
-8192 -0 1:0.3194744 2:0.3845792 3:0.523672 4:0.2307796 5:0.2410184 6:0.16421333 7:0.45340133 8:0.312502 9:0.19434667 10:0.122333 11:0.32115733 12:0.032077722 13:0.24039444 
-38.59370579826897 -6886.375499039926 1:0.23866 2:0.3307404 3:0.40502 4:0.220918 5:0.3343364 6:0.42801333 7:0.376372 8:0.19150933 9:0.30332133 10:0.30120867 11:0.061608667 12:0.43963444 13:0.0010630333 
-8192 -0 1:0.2489584 2:0.3519768 3:0.456132 4:0.226744 5:0.2326652 6:0.30216533 7:0.61692533 8:0.14479267 9:0.22118933 10:0.1 11:0.37659 12:0.014278333 13:0.41393611 
-8192 -0 1:0.250324 2:0.3983024 3:0.455988 4:0.19623 5:0.2127456 6:0.31883267 7:0.61359733 8:0.15863067 9:0.24169533 10:0.164373 11:0.37020667 12:0.0099113333 13:0.41157667 
-8192 -8192 1:0.2669756 2:0.459948 3:0.585472 4:0.01987516 5:0.0734988 6:0.40059 7:0.62884067 8:0.41483067 9:0.342582 10:0.34919667 11:0.42665333 12:0.26251778 13:0.0053200556 
-0 -2244.12237208104 1:0.338768 2:0.463716 3:0.55834 4:0.2783176 5:0.34199 6:0.67648 7:0.410394 8:0.10365867 9:0.080964667 10:0.34106333 11:0.18504 12:0.33910611 13:0.036421722 
-4008.219866226085 -2465.621483667148 1:0.2284464 2:0.2262156 3:0.3869356 4:0.12027 5:0.170446 6:0.16995 7:0.26669133 8:0.18540933 9:0.09778 10:0.080909667 11:0.18219133 12:0.12973167 13:0.0262785 
-0 -1101.791999947367 1:0.2536536 2:0.2558824 3:0.4102 4:0.233082 5:0.3049236 6:0.41354467 7:0.27290667 8:0.036898067 9:0.116316 10:0.20503733 11:0.087957333 12:0.33449278 13:0.0068322778 
-0 -8192 1:0.3366852 2:0.417704 3:0.455892 4:0.2294868 5:0.30414 6:0.32466067 7:0.26138267 8:0.178856 9:0.169488 10:0.195911 11:0.19966233 12:0.14610444 13:0.077337222 
-3392.036218893649 -0 1:0.3586996 2:0.563844 3:0.583088 4:0.2829656 5:0.363376 6:0.48099 7:0.75530667 8:0.36875333 9:0.34585667 10:0.17383967 11:0.53668 12:0.040608556 13:0.46883 
-5320.271730328067 -0 1:0.2531596 2:0.189892 3:0.652132 4:0.1152284 5:0.162136 6:0.18412067 7:0.66563067 8:0.36123733 9:0.291102 10:0.054282 11:0.45938333 12:0.10741111 13:0.25392167 
-7273.956206100607 -0 1:0.2772472 2:0.2207864 3:0.678864 4:0.00729964 5:0.0827248 6:0.148798 7:0.67008 8:0.45625933 9:0.34129667 10:0.13893833 11:0.50243667 12:0.22479111 13:0.12188444 
-0 -8192 1:0.32766 2:0.582164 3:0.770648 4:0.2261952 5:0.2660372 6:0.74498 7:0.7387 8:0.428358 9:0.453082 10:0.55343 11:0.53374667 12:0.56199444 13:0.27649611 
-8192 -0 1:0.287758 2:0.461012 3:0.598604 4:0.240076 5:0.3321664 6:0.50007267 7:0.71298 8:0.38368133 9:0.53367267 10:0.16608467 11:0.54457 12:0.063525556 13:0.51226833 
-8192 -0 1:0.2560336 2:0.3682476 3:0.53188 4:0.1936428 5:0.2407564 6:0.530438 7:0.66013733 8:0.183754 9:0.119048 10:0.19635433 11:0.38952667 12:0.19146833 13:0.34143389 
-8192 -0 1:0.318 2:0.448364 3:0.573052 4:0.2335788 5:0.2542912 6:0.58769533 7:0.66577333 8:0.199258 9:0.176794 10:0.23162 11:0.41209333 12:0.18640944 13:0.32980667 
-8192 -0 1:0.2203172 2:0.2979652 3:0.451124 4:0.000841448 5:0.0904264 6:0.16344933 7:0.50928733 8:0.36580533 9:0.284012 10:0.18920433 11:0.37435 12:0.11632778 13:0.16402111 
-8192 -0 1:0.373118 2:0.4541 3:0.593728 4:0.2892936 5:0.3724728 6:0.39168067 7:0.68516667 8:0.237696 9:0.17381667 10:0.112426 11:0.42949 12:0.060341111 13:0.32960111 
-8192 -8192 1:0.3324992 2:0.57066 3:0.572284 4:0.2136976 5:0.2403156 6:0.40872 7:0.64792333 8:0.24773667 9:0.19042533 10:0.27718867 11:0.39671333 12:0.033439889 13:0.30433167 
-0 -8192 1:0.3289848 2:0.57102 3:0.623876 4:0.1898248 5:0.2507692 6:0.64792333 7:0.49589333 8:0.26889867 9:0.19278733 10:0.40640333 11:0.31853367 12:0.32307333 13:0.066969444 
-0 -8192 1:0.3024716 2:0.404632 3:0.58478 4:0.1973908 5:0.241252 6:0.59574333 7:0.487042 8:0.245276 9:0.11282067 10:0.31030433 11:0.28717533 12:0.35973889 13:0.023157167 
-8192 -0 1:0.3034332 2:0.439488 3:0.569164 4:0.2008832 5:0.2399012 6:0.37572733 7:0.621528 8:0.23943 9:0.22846867 10:0.16673367 11:0.41723667 12:0.013760389 13:0.33448944 
-8192 -8192 1:0.382524 2:0.537432 3:0.565164 4:0.1818792 5:0.2539368 6:0.63202 7:0.307046 8:0.40264267 9:0.33849 10:0.43257 11:0.29632767 12:0.41162444 13:0.14578889 
-8192 -8192 1:0.2645176 2:0.447212 3:0.508188 4:0.2464136 5:0.249576 6:0.652746 7:0.66408267 8:0.052088667 9:0.10189867 10:0.27726233 11:0.35480333 12:0.26238278 13:0.31469889 
-8192 -0 1:0.3424744 2:0.3770252 3:0.592028 4:0.233156 5:0.3020796 6:0.061165667 7:0.46690733 8:0.26183 9:0.22471267 10:0.120428 11:0.33855 12:0.11699 13:0.21823667 
-8192 -6825.021656384331 1:0.256574 2:0.480948 3:0.539956 4:0.03869248 5:0.054144 6:0.47433733 7:0.473322 8:0.448148 9:0.50479733 10:0.42358 11:0.46062 12:0.74093889 13:0.5965 
-8192 -0 1:0.3525776 2:0.458216 3:0.626344 4:0.2038868 5:0.2440336 6:0.40325133 7:0.70634667 8:0.27870333 9:0.22920667 10:0.19250167 11:0.44453667 12:0.082603333 13:0.31486167 
-8192 -0 1:0.3953952 2:0.419384 3:0.685136 4:0.1903132 5:0.21784 6:0.14785467 7:0.55179733 8:0.45353333 9:0.41578267 10:0.19503567 11:0.48227667 12:0.12612278 13:0.29137056 
-1174.531553341163 -0 1:0.1886528 2:0.44964 3:0.509356 4:0.3090732 5:0.3702308 6:0.603076 7:0.60139667 8:0.342794 9:0.44399533 10:0.45971333 11:0.13960833 12:0.50758556 13:0.052505611 
-4782.574371190249 -0 1:0.248326 2:0.3118612 3:0.3313932 4:0.2165384 5:0.2938444 6:0.14163 7:0.46034467 8:0.16178267 9:0.077442 10:0.045052333 11:0.24871133 12:0.053661111 13:0.314675 
-4639.89238132056 -0 1:0.3598732 2:0.455672 3:0.493292 4:0.432996 5:0.492584 6:0.46958333 7:0.49046 8:0.446822 9:0.501702 10:0.45785333 11:0.0083333333 12:0.42012667 13:0.0064413333 
-0 -8192 1:0.3510024 2:0.551248 3:0.571776 4:0.2319832 5:0.2517916 6:0.63664867 7:0.43476467 8:0.272902 9:0.30913133 10:0.42014667 11:0.27570333 12:0.36738556 13:0.027139111 
