svm_type c_svc
kernel_type rbf
gamma 0.0078125
nr_class 3
total_sv 223
rho -1.00214 -1.00223 -0.995792
label 0 2 1
nr_sv 104 68 51
SV
0.03125 0 1:0.3271564 2:0.456388 3:0.659464 4:0.1949844 5:0.3055272 6:0.411344 7:0.77251333 8:0.34953667 9:0.252244 10:0.127741 11:0.51238 12:0.023162056 13:0.37842722 
0.03125 0 1:0.2929404 2:0.3087252 3:0.529904 4:0.1782396 5:0.2487708 6:0.0570996 7:0.43086533 8:0.29545933 9:0.12564733 10:0.057767333 11:0.27643733 12:0.039993944 13:0.15592611 
0 0.03125 1:0.1393904 2:0.2373128 3:0.2974012 4:0.2387236 5:0.253608 6:0.49604533 7:0.47630267 8:0.34876933 9:0.39387733 10:0.39172 11:0.041246 12:0.89904444 13:0.026739222 
0 0.03125 1:0.1237292 2:0.2148788 3:0.3227212 4:0.1841996 5:0.2486396 6:0.48998 7:0.419326 8:0.23578133 9:0.32656733 10:0.330785 11:0.065994667 12:0.9339 13:0.026702167 
0.03125 0.03125 1:0.121522 2:0.2675192 3:0.3146728 4:0.1234004 5:0.182166 6:0.53494533 7:0.37250733 8:0.18681333 9:0.24925667 10:0.32120633 11:0.13273733 12:0.88518889 13:0.11689944 
0.03125 0 1:0.3193248 2:0.379208 3:0.573568 4:0.0545616 5:0.0614372 6:0.37130667 7:0.61695 8:0.49766733 9:0.45490667 10:0.26482467 11:0.46634333 12:0.0072476111 13:0.41034722 
0.03125 0 1:0.3520548 2:0.42946 3:0.657968 4:0.19846 5:0.2212796 6:0.239354 7:0.53460333 8:0.27143533 9:0.23694733 10:0.19425467 11:0.36390667 12:0.034105556 13:0.00020593889 
0.03125 0 1:0.2582772 2:0.459744 3:0.476304 4:0.2607068 5:0.3250708 6:0.41893933 7:0.70741333 8:0.11570867 9:0.11848467 10:0.159967 11:0.38492333 12:0.054609333 13:0.37424889 
0.03125 0 1:0.352454 2:0.321952 3:0.610136 4:0.1221912 5:0.1261024 6:0.062590133 7:0.44121933 8:0.39161133 9:0.37739733 10:0.16331533 11:0.40506667 12:0.011229833 13:0.0511555 
0 0.03125 1:0.3389164 2:0.5637 3:0.848768 4:0.52566 5:0.57958 6:0.71498667 7:0.8498 8:0.75889333 9:0.79604 10:0.73628333 11:0.59321333 12:0.58271667 13:0.31133944 
0 0.03125 1:0.375738 2:0.61474 3:0.763056 4:0.1949408 5:0.2272228 6:0.74786667 7:0.64841267 8:0.46853733 9:0.433296 10:0.54422 11:0.50281667 12:0.49653556 13:0.21618111 
0 0.03125 1:0.3629204 2:0.454088 3:0.606056 4:0.314232 5:0.3570004 6:0.64202667 7:0.62434933 8:0.18573467 9:0.014875333 10:0.32508 11:0.26930333 12:0.31091167 13:0.101695 
0.03125 0 1:0.493272 2:0.473848 3:0.860148 4:0.2044716 5:0.2721464 6:0.0383842 7:0.61685933 8:0.515676 9:0.427158 10:0.202743 11:0.51939667 12:0.120005 13:0.13573333 
0.03125 0.03125 1:0.469756 2:0.439084 3:0.894836 4:0.083872 5:0.1596668 6:0.24420867 7:0.71897333 8:0.68209333 9:0.594926 10:0.31125733 11:0.65682 12:0.31009056 13:0.24533667 
0.03125 0 1:0.3797872 2:0.5274 3:0.646632 4:0.2412068 5:0.2974396 6:0.326984 7:0.78431333 8:0.277238 9:0.23961467 10:0.192747 11:0.48395667 12:0.0049027667 13:0.35294222 
0.03125 0 1:0.3791744 2:0.572792 3:0.645132 4:0.1629308 5:0.2560344 6:0.345898 7:0.78431333 8:0.396784 9:0.29480733 10:0.27568767 11:0.50505333 12:0.077297778 13:0.38515833 
0.03125 0.03125 1:0.3943732 2:0.568768 3:0.688684 4:0.1462088 5:0.2133384 6:0.32270733 7:0.78431333 8:0.42467267 9:0.33635267 10:0.298614 11:0.50566667 12:0.020175333 13:0.30598444 
0.03125 0.03125 1:0.3947508 2:0.569256 3:0.68894 4:0.1345864 5:0.2061348 6:0.32152933 7:0.78431333 8:0.44331933 9:0.340698 10:0.30403633 11:0.50203 12:0.021352056 13:0.305755 
0 0.03125 1:0.3482768 2:0.5157 3:0.568864 4:0.178132 5:0.2904772 6:0.58993333 7:0.51642933 8:0.36735667 9:0.344358 10:0.41896 11:0.236801 12:0.42138556 13:0.024303167 
0.03125 0 1:0.34473 2:0.442632 3:0.564976 4:0.3685856 5:0.40686 6:0.55625133 7:0.62109067 8:0.524548 9:0.469624 10:0.043599 11:0.54500667 12:0.022350333 13:0.46042833 
0.03125 0 1:0.343512 2:0.452584 3:0.549364 4:0.32662 5:0.442612 6:0.50473 7:0.60856867 8:0.49202933 9:0.519022 10:0.018291467 11:0.54401 12:0.013908222 13:0.47284333 
0.03125 0 1:0.3076384 2:0.512412 3:0.585592 4:0.218836 5:0.3380216 6:0.466394 7:0.68738667 8:0.24061067 9:0.22627267 10:0.14744467 11:0.45058667 12:0.013635889 13:0.36527222 
0.03125 0 1:0.3883224 2:0.447644 3:0.62702 4:0.299264 5:0.401684 6:0.597218 7:0.629158 8:0.15659133 9:0.098886667 10:0.254757 11:0.35873667 12:0.23197278 13:0.21948833 
0 0.03125 1:0.3052652 2:0.578792 3:0.59896 4:0.1451532 5:0.1858408 6:0.635594 7:0.53492733 8:0.27546067 9:0.28490067 10:0.41138333 11:0.34942 12:0.26683389 13:0.034643611 
0 0.03125 1:0.3055092 2:0.54812 3:0.636192 4:0.122582 5:0.17549 6:0.603524 7:0.587826 8:0.315476 9:0.29175667 10:0.40328667 11:0.38932333 12:0.29329667 13:0.0086076111 
0 0.03125 1:0.3047904 2:0.525632 3:0.550884 4:0.0720344 5:0.11331 6:0.61515 7:0.437412 8:0.42687933 9:0.41916667 10:0.43758333 11:0.39056333 12:0.47581667 13:0.16393722 
0.03125 0 1:0.2954792 2:0.455996 3:0.536628 4:0.1447848 5:0.2321372 6:0.61557533 7:0.67656667 8:0.27312333 9:0.14756267 10:0.26406267 11:0.39511667 12:0.19987222 13:0.34432556 
0 0.03125 1:0.1975308 2:0.1801016 3:0.491064 4:0.01401568 5:0.12328 6:0.10878333 7:0.49984 8:0.306086 9:0.35071267 10:0.131192 11:0.39756333 12:0.14949 13:0.020109944 
0.03125 0 1:0.3042168 2:0.47472 3:0.529576 4:0.1465092 5:0.2362916 6:0.61557533 7:0.67656667 8:0.28901133 9:0.14911533 10:0.271146 11:0.39052667 12:0.17448611 13:0.34562889 
0.03125 0.03125 1:0.3419044 2:0.598944 3:0.808336 4:0.597168 5:0.620556 6:0.8457 7:0.78142667 8:0.83299333 9:0.85201333 10:0.83876333 11:0.61613333 12:0.62924444 13:0.33690278 
0.03125 0 1:0.3361244 2:0.557156 3:0.577772 4:0.1913676 5:0.2402084 6:0.43712 7:0.72518667 8:0.41080067 9:0.27376467 10:0.26784133 11:0.4733 12:0.0464735 13:0.420105 
0.03125 0 1:0.302274 2:0.41054 3:0.630068 4:0.146704 5:0.2866532 6:0.50031533 7:0.71189333 8:0.27060133 9:0.13230533 10:0.18694767 11:0.42131333 12:0.17576333 13:0.27355778 
0 0.03125 1:0.1971488 2:0.1205172 3:0.3148604 4:0.1905432 5:0.2001444 6:0.457104 7:0.29747733 8:0.16882333 9:0.0317832 10:0.23673133 11:0.10366 12:0.68210556 13:0.0056125556 
0 0.03125 1:0.2191236 2:0.2031676 3:0.3675204 4:0.0768424 5:0.0955456 6:0.468588 7:0.29175133 8:0.241188 9:0.263876 10:0.186236 11:0.23379233 12:0.52820222 13:0.039707222 
0 0.03125 1:0.3385212 2:0.571012 3:0.83856 4:0.557 5:0.62884 6:0.80076667 7:0.83341333 8:0.7518 9:0.86868667 10:0.77558 11:0.57068 12:0.6177 13:0.30194278 
0 0.03125 1:0.3966712 2:0.566864 3:0.838856 4:0.1348556 5:0.1686936 6:0.69198 7:0.73698 8:0.47382867 9:0.49748133 10:0.45598333 11:0.60161 12:0.41549389 13:0.15280278 
0 0.03125 1:0.3974796 2:0.567264 3:0.839664 4:0.1004048 5:0.122492 6:0.69198 7:0.73698 8:0.5135 9:0.514172 10:0.45190333 11:0.62094333 12:0.39233111 13:0.12997389 
0 0.03125 1:0.3591992 2:0.51026 3:0.800288 4:0.058 5:0.0897084 6:0.69198 7:0.73698 8:0.56858667 9:0.53534467 10:0.45209333 11:0.63476333 12:0.62203333 13:0.34221778 
0 0.03125 1:0.364056 2:0.458976 3:0.802292 4:0.0535084 5:0.0768928 6:0.644116 7:0.73253333 8:0.57675133 9:0.55441333 10:0.40715667 11:0.64285667 12:0.63767778 13:0.35441722 
0.03125 0.03125 1:0.3759332 2:0.51678 3:0.807896 4:0.02982436 5:0.03580628 6:0.63960133 7:0.72069333 8:0.58851 9:0.611242 10:0.40373667 11:0.65458667 12:0.051129278 13:0.22574556 
0 0.03125 1:0.3369564 2:0.55636 3:0.73754 4:0.555212 5:0.620612 6:0.80409333 7:0.6681 8:0.82269333 9:0.84718 10:0.80648 11:0.51437333 12:0.63569444 13:0.29566278 
0.03125 0 1:0.3619392 2:0.467216 3:0.64884 4:0.2007776 5:0.3164192 6:0.57408467 7:0.76561333 8:0.31390733 9:0.19888467 10:0.20059133 11:0.47847667 12:0.14539722 13:0.34561111 
0.03125 0.03125 1:0.2817004 2:0.49016 3:0.508188 4:0.251018 5:0.2756156 6:0.64526467 7:0.653456 8:0.14300933 9:0.075875333 10:0.26493 11:0.36449333 12:0.19303778 13:0.32959389 
0.03125 0 1:0.2823948 2:0.490432 3:0.508784 4:0.2396216 5:0.2702932 6:0.64526467 7:0.653456 8:0.14850333 9:0.090112667 10:0.26983233 11:0.37095333 12:0.193105 13:0.33832556 
0.03125 0 1:0.1319392 2:0.2204172 3:0.2230484 4:0.2348168 5:0.2630004 6:0.30402667 7:0.51306267 8:0.25478133 9:0.37684667 10:0.037552 11:0.37283 12:0.019490944 13:0.86356111 
0.03125 0.03125 1:0.1342444 2:0.1823284 3:0.233082 4:0.1872184 5:0.194454 6:0.21006533 7:0.48512133 8:0.18593267 9:0.27492533 10:0.020926933 11:0.326709 12:0.042468278 13:0.76378333 
0.03125 0 1:0.3141816 2:0.3030616 3:0.452544 4:0.241142 5:0.301176 6:0.034993667 7:0.24564733 8:0.16979667 9:0.068018667 10:0.0172171 11:0.14934533 12:0.021681167 13:0.082956667 
0.03125 0.03125 1:0.3142316 2:0.3122024 3:0.451156 4:0.244802 5:0.3010972 6:0.013701667 7:0.26633867 8:0.17927733 9:0.041523867 10:0.014443433 11:0.15301533 12:0.0138165 13:0.091709444 
0.03125 0 1:0.3328004 2:0.3910972 3:0.57368 4:0.0769688 5:0.1132304 6:0.13332267 7:0.46316133 8:0.42814133 9:0.371198 10:0.23923267 11:0.39844333 12:0.0021267056 13:0.055133056 
0 0.03125 1:0.1188708 2:0.1882544 3:0.1937528 4:0.194176 5:0.2278348 6:0.48512133 7:0.18111133 8:0.16843667 9:0.25327867 10:0.316766 11:0.0125363 12:0.92996111 13:0.024684 
0.03125 0 1:0.1642152 2:0.3073304 3:0.330086 4:0.225626 5:0.27701 6:0.26739 7:0.58590533 8:0.10652067 9:0.21855067 10:0.0253681 11:0.32974933 12:0.0029614944 13:0.49297778 
0.03125 0 1:0.1702828 2:0.3079524 3:0.3895016 4:0.1690996 5:0.2196812 6:0.26401333 7:0.66219133 8:0.0151864 9:0.12081533 10:0.075051667 11:0.33804333 12:0.0218745 13:0.46184667 
0.03125 0 1:0.1632528 2:0.2848004 3:0.436028 4:0.1534296 5:0.18812 6:0.26401333 7:0.67322667 8:0.031327333 9:0.10903933 10:0.084290667 11:0.34967333 12:0.040914556 13:0.40935667 
0.03125 0 1:0.1616708 2:0.2773644 3:0.4311 4:0.1043892 5:0.1602372 6:0.275584 7:0.66466333 8:0.098897333 9:0.098422667 10:0.103512 11:0.32584533 12:0.062545556 13:0.33801222 
0.03125 0 1:0.2673524 2:0.3356332 3:0.508448 4:0.00041064 5:0.0445908 6:0.13135 7:0.43502867 8:0.445652 9:0.51908533 10:0.27977067 11:0.42383 12:0.57172222 13:0.61648889 
0.03125 0 1:0.2637108 2:0.514804 3:0.54862 4:0.1682084 5:0.1692932 6:0.46983467 7:0.70155333 8:0.346642 9:0.29436333 10:0.30199367 11:0.47713667 12:0.11855389 13:0.49689056 
0 0.03125 1:0.3134368 2:0.560144 3:0.575576 4:0.187644 5:0.2032292 6:0.67510667 7:0.485162 8:0.322286 9:0.26826333 10:0.44453667 11:0.31404033 12:0.39978222 13:0.054107889 
0.03125 0 1:0.3669364 2:0.423152 3:0.627952 4:0.3031944 5:0.3604472 6:0.17874733 7:0.452078 8:0.224256 9:0.08268 10:0.061039 11:0.25050033 12:0.030866667 13:0.092063333 
0.03125 0 1:0.3615688 2:0.422696 3:0.62222 4:0.2842216 5:0.3167392 6:0.10576267 7:0.46549467 8:0.22625667 9:0.11037867 10:0.093471 11:0.286318 12:0.032022444 13:0.11335222 
0.03125 0 1:0.2799864 2:0.2471616 3:0.59376 4:0.2373856 5:0.3157772 6:0.074198 7:0.54375867 8:0.105316 9:0.10835667 10:0.015766967 11:0.27288533 12:0.021291389 13:0.12761333 
0.03125 0 1:0.23248 2:0.40196 3:0.538952 4:0.00582496 5:0.02274188 6:0.34851133 7:0.67234 8:0.37974933 9:0.38585467 10:0.326392 11:0.44834333 12:0.076663889 13:0.44672389 
0 0.03125 1:0.343564 2:0.472316 3:0.614016 4:0.344652 5:0.3783812 6:0.67352667 7:0.458776 8:0.045569267 9:0.101612 10:0.35907333 11:0.19666667 12:0.34071444 13:0.0086785556 
0 0.03125 1:0.3382124 2:0.464232 3:0.598684 4:0.3278108 5:0.3833476 6:0.67352667 7:0.444426 8:0.047926067 9:0.116316 10:0.35627667 11:0.179644 12:0.34763611 13:0.0066885 
0 0.03125 1:0.338734 2:0.463868 3:0.600648 4:0.2952288 5:0.3831848 6:0.67655333 7:0.45966933 8:0.081212 9:0.11332067 10:0.34852667 11:0.18227167 12:0.34598111 13:0.015583833 
0 0.03125 1:0.338768 2:0.463716 3:0.55834 4:0.2783176 5:0.34199 6:0.67648 7:0.410394 8:0.10365867 9:0.080964667 10:0.34106333 11:0.18504 12:0.33910611 13:0.036421722 
0 0.03125 1:0.338612 2:0.464236 3:0.558352 4:0.2661284 5:0.3511736 6:0.67648 7:0.41427133 8:0.123094 9:0.089845333 10:0.33992 11:0.17785433 12:0.33865389 13:0.036868111 
0.03125 0 1:0.3391016 2:0.464772 3:0.561248 4:0.2173216 5:0.2920104 6:0.67648 7:0.44806267 8:0.20323 9:0.12013667 10:0.334 11:0.23199867 12:0.33042222 13:0.055764444 
0.03125 0 1:0.228454 2:0.1605092 3:0.3897652 4:0.1808464 5:0.19171 6:0.15828467 7:0.27229467 8:0.11403667 9:0.0642948 10:0.064216333 11:0.16519367 12:0.12873278 13:0.0097574444 
0.03125 0 1:0.2284464 2:0.2262156 3:0.3869356 4:0.12027 5:0.170446 6:0.16995 7:0.26669133 8:0.18540933 9:0.09778 10:0.080909667 11:0.18219133 12:0.12973167 13:0.0262785 
0.03125 0 1:0.2914032 2:0.432872 3:0.43568 4:0.2136248 5:0.2742744 6:0.38510933 7:0.534026 8:0.143818 9:0.036337867 10:0.20515333 11:0.25670433 12:0.11787833 13:0.24780778 
0 0.03125 1:0.1249404 2:0.215258 3:0.505116 4:0.001914484 5:0.0740636 6:0.38752933 7:0.64395133 8:0.20504933 9:0.13781467 10:0.17905633 11:0.36532667 12:0.433255 13:0.10754111 
0.03125 0 1:0.3588656 2:0.526196 3:0.577932 4:0.3789308 5:0.419168 6:0.469704 7:0.7552 8:0.40328 9:0.37019533 10:0.089982667 11:0.56268 12:0.0096934444 13:0.46458778 
0.03125 0 1:0.358932 2:0.565228 3:0.581664 4:0.296394 5:0.3549804 6:0.49173867 7:0.75530667 8:0.369352 9:0.33730733 10:0.17929633 11:0.54100333 12:0.032486889 13:0.46725111 
0.03125 0 1:0.3586996 2:0.563844 3:0.583088 4:0.2829656 5:0.363376 6:0.48099 7:0.75530667 8:0.36875333 9:0.34585667 10:0.17383967 11:0.53668 12:0.040608556 13:0.46883 
0.03125 0 1:0.2821304 2:0.2251068 3:0.6838 4:0.02105692 5:0.0792008 6:0.148798 7:0.67008 8:0.447248 9:0.349164 10:0.13943367 11:0.50738667 12:0.17675167 13:0.098784444 
0.03125 0 1:0.2772472 2:0.2207864 3:0.678864 4:0.00729964 5:0.0827248 6:0.148798 7:0.67008 8:0.45625933 9:0.34129667 10:0.13893833 11:0.50243667 12:0.22479111 13:0.12188444 
0.03125 0 1:0.2206276 2:0.1716428 3:0.622628 4:0.00412224 5:0.0362544 6:0.14829867 7:0.67153333 8:0.37153267 9:0.42514867 10:0.14375 11:0.52095667 12:0.56296111 13:0.70857778 
0 0.03125 1:0.3414392 2:0.62644 3:0.819388 4:0.523188 5:0.591628 6:0.80202667 7:0.79658667 8:0.71114667 9:0.74396 10:0.75635333 11:0.51545 12:0.54519 13:0.27102444 
0 0.03125 1:0.395762 2:0.619948 3:0.83894 4:0.2339336 5:0.2636668 6:0.74498 7:0.7387 8:0.43206133 9:0.48174533 10:0.53549333 11:0.55926 12:0.47127611 13:0.21262389 
0.03125 0 1:0.2954684 2:0.3074176 3:0.529228 4:0.163006 5:0.2431436 6:0.060870733 7:0.43964 8:0.223502 9:0.19214733 10:0.081609333 11:0.30967533 12:0.066794444 13:0.068453333 
0.03125 0 1:0.2203172 2:0.2979652 3:0.451124 4:0.000841448 5:0.0904264 6:0.16344933 7:0.50928733 8:0.36580533 9:0.284012 10:0.18920433 11:0.37435 12:0.11632778 13:0.16402111 
0.03125 0.03125 1:0.2567768 2:0.51888 3:0.523996 4:0.0164264 5:0.0475468 6:0.503948 7:0.44870733 8:0.403788 9:0.35662733 10:0.39278 11:0.40229667 12:0.0024015056 13:0.15849667 
0.03125 0 1:0.2178936 2:0.501868 3:0.586364 4:0.0476796 5:0.0599908 6:0.56039267 7:0.62618733 8:0.34055 9:0.385284 10:0.38668 11:0.48273333 12:0.19867667 13:0.439685 
0.03125 0 1:0.3858416 2:0.52476 3:0.583108 4:0.2808996 5:0.3419088 6:0.38567133 7:0.68788 8:0.260278 9:0.15278667 10:0.16676367 11:0.41127333 12:0.019451167 13:0.32029167 
0 0.03125 1:0.2898304 2:0.534928 3:0.550916 4:0.208012 5:0.2566448 6:0.44104933 7:0.64792333 8:0.21499533 9:0.183976 10:0.235579 11:0.41472 12:0.042769278 13:0.35837667 
0.03125 0 1:0.3324992 2:0.57066 3:0.572284 4:0.2136976 5:0.2403156 6:0.40872 7:0.64792333 8:0.24773667 9:0.19042533 10:0.27718867 11:0.39671333 12:0.033439889 13:0.30433167 
0 0.03125 1:0.3289848 2:0.57102 3:0.623876 4:0.1898248 5:0.2507692 6:0.64792333 7:0.49589333 8:0.26889867 9:0.19278733 10:0.40640333 11:0.31853367 12:0.32307333 13:0.066969444 
0 0.03125 1:0.3239924 2:0.567416 3:0.619924 4:0.117964 5:0.182228 6:0.64792333 7:0.49328867 8:0.35330867 9:0.26167867 10:0.41133333 11:0.37231333 12:0.31146333 13:0.077903889 
0 0.03125 1:0.3229464 2:0.567092 3:0.619056 4:0.1047764 5:0.1883852 6:0.64792333 7:0.49352 8:0.37185733 9:0.25878 10:0.41544667 11:0.36971 12:0.31103722 13:0.080356111 
0.03125 0.03125 1:0.3221996 2:0.567328 3:0.618164 4:0.0663576 5:0.1311372 6:0.64792333 7:0.49334133 8:0.42696867 9:0.33481067 10:0.42633 11:0.4117 12:0.25830056 13:0.025313111 
0.03125 0.03125 1:0.32471 2:0.559472 3:0.567996 4:0.0477136 5:0.0492248 6:0.39561867 7:0.64598533 8:0.46650267 9:0.46206933 10:0.42581333 11:0.43687 12:0.052421389 13:0.12519444 
0 0.03125 1:0.2786136 2:0.505456 3:0.50582 4:0.0001022448 5:0.0507544 6:0.64311 7:0.38300933 8:0.46451533 9:0.520802 10:0.42129 11:0.42159333 12:0.84240556 13:0.68232778 
0.03125 0.03125 1:0.327466 2:0.561916 3:0.571884 4:0.01724524 5:0.02722276 6:0.40876667 7:0.64588733 8:0.51765133 9:0.54204667 10:0.4539 11:0.46003 12:0.010794111 13:0.23467 
0 0.03125 1:0.382524 2:0.537432 3:0.565164 4:0.1818792 5:0.2539368 6:0.63202 7:0.307046 8:0.40264267 9:0.33849 10:0.43257 11:0.29632767 12:0.41162444 13:0.14578889 
0.03125 0 1:0.2645176 2:0.447212 3:0.508188 4:0.2464136 5:0.249576 6:0.652746 7:0.66408267 8:0.052088667 9:0.10189867 10:0.27726233 11:0.35480333 12:0.26238278 13:0.31469889 
0.03125 0 1:0.240616 2:0.443776 3:0.47686 4:0.02552016 5:0.0804528 6:0.34060467 7:0.426252 8:0.44070667 9:0.52677667 10:0.39006333 11:0.41855667 12:0.89151111 13:0.96231667 
0 0.03125 1:0.22225 2:0.45368 3:0.516776 4:0.0429264 5:0.0797188 6:0.477878 7:0.491266 8:0.430702 9:0.49515467 10:0.41373667 11:0.46091 12:0.95839444 13:0.81408333 
0 0.03125 1:0.241846 2:0.407776 3:0.507508 4:0.2555708 5:0.2569236 6:0.58447533 7:0.70655333 8:0.045554467 9:0.0293232 10:0.27330533 11:0.34455 12:0.29711556 13:0.30099333 
0.03125 0.03125 1:0.2490544 2:0.439912 3:0.513956 4:0.1974088 5:0.2140952 6:0.630118 7:0.70359333 8:0.094305333 9:0.083371333 10:0.29838067 11:0.32974833 12:0.29498833 13:0.25447222 
0.03125 0 1:0.248326 2:0.3118612 3:0.3313932 4:0.2165384 5:0.2938444 6:0.14163 7:0.46034467 8:0.16178267 9:0.077442 10:0.045052333 11:0.24871133 12:0.053661111 13:0.314675 
0.03125 0 1:0.3509304 2:0.335278 3:0.488236 4:0.1974412 5:0.2726944 6:0.19567067 7:0.54122933 8:0.27772733 9:0.22670333 10:0.052415333 11:0.34257667 12:0.0066213333 13:0.31001278 
0.03125 0 1:0.3927436 2:0.425392 3:0.541988 4:0.2328792 5:0.247792 6:0.204962 7:0.652868 8:0.30400467 9:0.29778667 10:0.14850733 11:0.40230667 12:0.00011133667 13:0.34954944 
0.03125 0 1:0.3538976 2:0.53318 3:0.552944 4:0.2911776 5:0.3405428 6:0.41269 7:0.62743133 8:0.22602533 9:0.31010733 10:0.16861433 11:0.41585667 12:0.0060388333 13:0.35518 
0.03125 0.03125 1:0.3510024 2:0.551248 3:0.571776 4:0.2319832 5:0.2517916 6:0.63664867 7:0.43476467 8:0.272902 9:0.30913133 10:0.42014667 11:0.27570333 12:0.36738556 13:0.027139111 
-0.03125 0.03125 1:0.32785 2:0.433648 3:0.585824 4:0.2415924 5:0.286632 6:0.48455267 7:0.71558 8:0.206622 9:0.19173533 10:0.16577 11:0.44004333 12:0.12172667 13:0.35726611 
-0.03125 0.03125 1:0.382498 2:0.570272 3:0.686256 4:0.135088 5:0.2218128 6:0.427188 7:0.77251333 8:0.44747333 9:0.31889467 10:0.290429 11:0.50705667 12:0.0054800333 13:0.33611056 
-0.03125 0 1:0.3181892 2:0.3365288 3:0.574912 4:0.1347892 5:0.2172972 6:0.033261 7:0.46922067 8:0.33634267 9:0.18512267 10:0.109161 11:0.32546533 12:0.063965 13:0.14257778 
-0.03125 0.03125 1:0.3174712 2:0.442996 3:0.574588 4:0.1666404 5:0.2260072 6:0.55723133 7:0.67586667 8:0.252162 9:0.15734267 10:0.26719533 11:0.37979 12:0.24335167 13:0.25573333 
-0.03125 0 1:0.208976 2:0.240344 3:0.506988 4:0.0607324 5:0.1376984 6:0.15912667 7:0.60469 8:0.37833867 9:0.332764 10:0.14117567 11:0.46053667 12:0.24157222 13:0.57647222 
-0.03125 0.03125 1:0.2010672 2:0.3717348 3:0.45956 4:0.197268 5:0.3150576 6:0.44678733 7:0.66194333 8:0.0087877333 9:0.20412867 10:0.17431633 11:0.33425333 12:0.19009611 13:0.33622389 
-0.03125 0 1:0.3325568 2:0.428516 3:0.5194 4:0.1936788 5:0.2147952 6:0.18835933 7:0.63139667 8:0.25632867 9:0.24405867 10:0.183132 11:0.38354333 12:0.032721278 13:0.34264833 
-0.03125 0.03125 1:0.295064 2:0.393598 3:0.630292 4:0.0543144 5:0.2663844 6:0.167878 7:0.62811667 8:0.403746 9:0.32644067 10:0.201079 11:0.47008 12:0.048236222 13:0.19572611 
-0.03125 0.03125 1:0.3553764 2:0.358404 3:0.6265 4:0.0899024 5:0.1350436 6:0.10034733 7:0.46196267 8:0.44316 9:0.37479267 10:0.19824467 11:0.41711667 12:0.080373889 13:0.065575 
-0.03125 0.03125 1:0.253632 2:0.45568 3:0.476752 4:0.1988448 5:0.2359492 6:0.472242 7:0.70741333 8:0.12819067 9:0.042965867 10:0.23019933 11:0.36787 12:0.11204611 13:0.37194 
-0.03125 0.03125 1:0.3137852 2:0.52264 3:0.694056 4:0.2483724 5:0.3783652 6:0.6973 7:0.63380667 8:0.45736867 9:0.554362 10:0.54294333 11:0.48454 12:0.60944444 13:0.31613278 
-0.03125 0.03125 1:0.3668348 2:0.585172 3:0.612096 4:0.17378 5:0.24321 6:0.662586 7:0.46187133 8:0.47164933 9:0.37962133 10:0.49236667 11:0.33039433 12:0.44097111 13:0.12059333 
-0.03125 0.03125 1:0.379114 2:0.571424 3:0.646212 4:0.0949944 5:0.1374168 6:0.33591933 7:0.78431333 8:0.496224 9:0.427454 10:0.36627 11:0.50636 12:0.079073333 13:0.37637056 
-0.03125 0.03125 1:0.3421172 2:0.586796 3:0.621772 4:0.1986648 5:0.2415564 6:0.71579333 7:0.500378 8:0.317346 9:0.272174 10:0.46866 11:0.324269 12:0.40142778 13:0.068128333 
-0.03125 0.03125 1:0.3453168 2:0.487644 3:0.572264 4:0.2313268 5:0.2711836 6:0.421756 7:0.59685467 8:0.255134 9:0.282456 10:0.180423 11:0.40597333 12:0.0039040667 13:0.31742833 
-0.03125 0.03125 1:0.3136396 2:0.460288 3:0.516012 4:0.1987112 5:0.2572876 6:0.41339267 7:0.578482 8:0.253336 9:0.16198467 10:0.18400533 11:0.36139 12:0.041888556 13:0.31697889 
-0.03125 0.03125 1:0.1797624 2:0.435048 3:0.503496 4:0.01181796 5:0.084752 6:0.50092 7:0.621478 8:0.29820067 9:0.41696467 10:0.36711333 11:0.41308333 12:0.64990556 13:0.26784056 
-0.03125 0.03125 1:0.357062 2:0.566908 3:0.571492 4:0.2299184 5:0.237668 6:0.60898467 7:0.462286 8:0.43106467 9:0.35519733 10:0.45953 11:0.28651167 12:0.41170944 13:0.071205 
-0.03125 0.03125 1:0.3297408 2:0.513476 3:0.628564 4:0.1782716 5:0.2543388 6:0.436278 7:0.68738667 8:0.295646 9:0.209378 10:0.21839533 11:0.44306 12:0.023545444 13:0.31313667 
-0.03125 0.03125 1:0.3483632 2:0.480704 3:0.518976 4:0.1708216 5:0.1813396 6:0.26078333 7:0.54780067 8:0.34553267 9:0.30846133 10:0.25104567 11:0.37197333 12:0.036352 13:0.31573667 
-0.03125 0 1:0.2133844 2:0.3158964 3:0.509088 4:0.22792 5:0.324128 6:0.25711333 7:0.60497333 8:0.20000467 9:0.254994 10:0.013501333 11:0.37382667 12:0.013882556 13:0.33557333 
-0.03125 0.03125 1:0.2705112 2:0.434112 3:0.461888 4:0.165932 5:0.2730836 6:0.49853 7:0.42415867 8:0.291252 9:0.32917733 10:0.36757667 11:0.175627 12:0.45248833 13:0.061848889 
-0.03125 0.03125 1:0.3025464 2:0.410796 3:0.6301 4:0.1350388 5:0.2788144 6:0.50320467 7:0.71189333 8:0.28896067 9:0.143192 10:0.185751 11:0.42737 12:0.17099556 13:0.27388222 
-0.03125 0.03125 1:0.260246 2:0.3062916 3:0.542176 4:0.1480216 5:0.1623564 6:0.28893467 7:0.59984133 8:0.19624133 9:0.184174 10:0.13636567 11:0.37499667 12:0.11169278 13:0.25035944 
-0.03125 0.03125 1:0.3637232 2:0.5725 3:0.62002 4:0.1779308 5:0.2599324 6:0.43712 7:0.72518667 8:0.41878667 9:0.27548467 10:0.26149467 11:0.47813 12:0.022867833 13:0.37559222 
-0.03125 0.03125 1:0.219132 2:0.2544876 3:0.351998 4:0.056282 5:0.0690616 6:0.47005467 7:0.29276933 8:0.28099667 9:0.25228067 10:0.19331667 11:0.24644267 12:0.35242722 13:0.0067302778 
-0.03125 0.03125 1:0.3618188 2:0.466736 3:0.649128 4:0.1884704 5:0.3243244 6:0.57408467 7:0.76561333 8:0.32882267 9:0.205882 10:0.19352067 11:0.48351333 12:0.14594667 13:0.35106056 
-0.03125 0 1:0.348894 2:0.440604 3:0.567104 4:0.1010492 5:0.1598716 6:0.23064 7:0.628088 8:0.43022467 9:0.34370533 10:0.23471267 11:0.42321333 12:0.027320944 13:0.33619222 
-0.03125 0 1:0.2620492 2:0.42682 3:0.499596 4:0.2326096 5:0.2348396 6:0.42642933 7:0.55555467 8:0.28157 9:0.312508 10:0.16368467 11:0.41812 12:0.029693278 13:0.42823778 
-0.03125 0.03125 1:0.3312928 2:0.42448 3:0.567208 4:0.0399172 5:0.0473472 6:0.16252533 7:0.46106267 8:0.48579267 9:0.51098933 10:0.32084367 11:0.44128 12:0.045538611 13:0.12772889 
-0.03125 0.03125 1:0.3594552 2:0.51928 3:0.5822 4:0.2572952 5:0.3331868 6:0.41701267 7:0.69618667 8:0.41161 9:0.421288 10:0.18538133 11:0.52641333 12:0.093613889 13:0.48909056 
-0.03125 0 1:0.3982056 2:0.46034 3:0.631096 4:0.2816452 5:0.313796 6:0.30812267 7:0.66153733 8:0.22669333 9:0.213216 10:0.12956067 11:0.41358667 12:0.043528111 13:0.27450778 
-0.03125 0.03125 1:0.3363772 2:0.3654276 3:0.536136 4:0.1042984 5:0.1894436 6:0.082392667 7:0.42751267 8:0.44359 9:0.29209467 10:0.18177433 11:0.34996 12:0.15752 13:0.24253111 
-0.03125 0.03125 1:0.3244068 2:0.43454 3:0.496084 4:0.2552808 5:0.2914152 6:0.51152867 7:0.62827267 8:0.12551933 9:0.225874 10:0.15814467 11:0.34102333 12:0.11204778 13:0.30781389 
-0.03125 0.03125 1:0.3115208 2:0.569516 3:0.572828 4:0.1305612 5:0.1689024 6:0.46555533 7:0.67304667 8:0.30538867 9:0.30969267 10:0.34104 11:0.41741333 12:0.035680944 13:0.28292333 
-0.03125 0.03125 1:0.3127112 2:0.475584 3:0.531508 4:0.1786804 5:0.2594692 6:0.636358 7:0.63014667 8:0.26033667 9:0.19247867 10:0.243368 11:0.40060667 12:0.18039167 13:0.35543833 
-0.03125 0 1:0.2934016 2:0.368148 3:0.470396 4:0.1845048 5:0.2079328 6:0.14139867 7:0.50660467 8:0.24253333 9:0.30286267 10:0.16587667 11:0.34956333 12:0.094130556 13:0.34886889 
-0.03125 0.03125 1:0.297612 2:0.462096 3:0.512892 4:0.1511952 5:0.1562288 6:0.33803 7:0.613532 8:0.28589933 9:0.24228667 10:0.257526 11:0.3662 12:0.032836611 13:0.29960944 
-0.03125 0.03125 1:0.3123748 2:0.3241548 3:0.604392 4:0.2597756 5:0.2956444 6:0.583688 7:0.68276 8:0.16117133 9:0.16724733 10:0.211166 11:0.41883667 12:0.26662389 13:0.30548944 
-0.03125 0.03125 1:0.3568156 2:0.419112 3:0.6165 4:0.2419184 5:0.2925972 6:0.11051467 7:0.48917933 8:0.262812 9:0.12109867 10:0.11576033 11:0.304027 12:0.052200389 13:0.12666611 
-0.03125 0 1:0.2797564 2:0.2256516 3:0.601456 4:0.217724 5:0.288688 6:0.092559333 7:0.587784 8:0.12397867 9:0.087462667 10:0.022530467 11:0.31906133 12:0.037140944 13:0.16574222 
-0.03125 0 1:0.313616 2:0.42404 3:0.438332 4:0.1313968 5:0.2486568 6:0.18452533 7:0.519362 8:0.325258 9:0.13698467 10:0.15606667 11:0.301565 12:0.064505 13:0.30914833 
-0.03125 0.03125 1:0.2668548 2:0.427284 3:0.567524 4:0.317892 5:0.3620416 6:0.64089267 7:0.72172667 8:0.22751067 9:0.27421333 10:0.21617933 11:0.4666 12:0.20677278 13:0.40077333 
-0.03125 0.03125 1:0.3615632 2:0.2831992 3:0.597292 4:0.190068 5:0.2752076 6:0.21674133 7:0.43270333 8:0.39257 9:0.37118667 10:0.078336333 11:0.39747 12:0.095595556 13:0.27398111 
-0.03125 0.03125 1:0.2174992 2:0.2038756 3:0.416304 4:0.0524536 5:0.0653172 6:0.174048 7:0.332482 8:0.28931067 9:0.25527 10:0.13044267 11:0.29377533 12:0.20437444 13:0.063696667 
-0.03125 0 1:0.0664012 2:0.2788768 3:0.407304 4:0.1693416 5:0.2477192 6:0.54633667 7:0.58730933 8:0.38083 9:0.48931067 10:0.031495067 11:0.48053667 12:0.025913056 13:0.88802778 
-0.03125 0.03125 1:0.3431968 2:0.25115 3:0.661972 4:0.1302676 5:0.2028044 6:0.16737 7:0.53298733 8:0.45494333 9:0.32235733 10:0.080530667 11:0.41859333 12:0.11870111 13:0.17929944 
-0.03125 0 1:0.23902 2:0.262708 3:0.504844 4:0.1452092 5:0.172614 6:0.12070867 7:0.49057733 8:0.33209933 9:0.23716133 10:0.097903667 11:0.36313667 12:0.11330833 13:0.31699944 
-0.03125 0 1:0.229276 2:0.3220504 3:0.435196 4:0.195738 5:0.2272764 6:0.246326 7:0.43546667 8:0.249406 9:0.18506867 10:0.080312333 11:0.30639267 12:0.020583389 13:0.32024667 
-0.03125 0.03125 1:0.3834476 2:0.436984 3:0.62254 4:0.2704288 5:0.2774812 6:0.48753333 7:0.632118 8:0.326922 9:0.22210267 10:0.151765 11:0.40762667 12:0.068341111 13:0.27389667 
-0.03125 0 1:0.3375064 2:0.350984 3:0.570068 4:0.1930752 5:0.2738592 6:0.0385722 7:0.43964 8:0.24312467 9:0.18768133 10:0.091379667 11:0.31268533 12:0.042934056 13:0.065112778 
-0.03125 0.03125 1:0.2819208 2:0.463872 3:0.599488 4:0.2180356 5:0.3322092 6:0.50339467 7:0.7126 8:0.37918467 9:0.54444 10:0.177869 11:0.54047333 12:0.073958333 13:0.51670167 
-0.03125 0.03125 1:0.3034916 2:0.443912 3:0.559156 4:0.1939528 5:0.2146088 6:0.571084 7:0.66333133 8:0.216502 9:0.181508 10:0.249206 11:0.39982 12:0.18806611 13:0.32012444 
-0.03125 0.03125 1:0.3015516 2:0.46552 3:0.527228 4:0.1780344 5:0.2123064 6:0.40461867 7:0.60557 8:0.291588 9:0.27813467 10:0.21210833 11:0.42026333 12:0.018725722 13:0.40476833 
-0.03125 0 1:0.3844724 2:0.510952 3:0.582288 4:0.224838 5:0.288696 6:0.309148 7:0.68033333 8:0.332448 9:0.21239667 10:0.18602733 11:0.41533333 12:0.017290722 13:0.32684778 
-0.03125 0.03125 1:0.2633992 2:0.405456 3:0.57384 4:0.410276 5:0.416868 6:0.43633133 7:0.70306 8:0.31658867 9:0.30488067 10:0.10763667 11:0.43028 12:0.10115944 13:0.33544056 
-0.03125 0.03125 1:0.3420872 2:0.521936 3:0.542608 4:0.2239528 5:0.225968 6:0.39507467 7:0.63438467 8:0.35394133 9:0.3903 10:0.260859 11:0.4623 12:0.089570556 13:0.45158722 
-0.03125 0 1:0.3051968 2:0.45002 3:0.571812 4:0.1896828 5:0.234336 6:0.37581933 7:0.621528 8:0.25097333 9:0.24366 10:0.17976633 11:0.41911667 12:0.0038620333 13:0.33072111 
-0.03125 0.03125 1:0.3035752 2:0.420376 3:0.569644 4:0.1780172 5:0.1962452 6:0.42458933 7:0.68608 8:0.25821933 9:0.211626 10:0.206093 11:0.41868 12:0.080181667 13:0.33531222 
-0.03125 0.03125 1:0.3143044 2:0.499336 3:0.57198 4:0.1352796 5:0.184464 6:0.45432333 7:0.64787333 8:0.376602 9:0.343198 10:0.265714 11:0.46881 12:0.052765278 13:0.4384 
-0.03125 0.03125 1:0.33145 2:0.401988 3:0.538564 4:0.0424248 5:0.109324 6:0.15221733 7:0.43517733 8:0.51207667 9:0.389076 10:0.261003 11:0.38774333 12:0.17145056 13:0.24131444 
-0.03125 0.03125 1:0.2650052 2:0.448672 3:0.507404 4:0.2383724 5:0.2543188 6:0.652746 7:0.66408267 8:0.10625333 9:0.0361178 10:0.27911233 11:0.34863333 12:0.26097833 13:0.30693944 
-0.03125 0.03125 1:0.3528628 2:0.459684 3:0.626664 4:0.1921152 5:0.2514892 6:0.38346733 7:0.70634667 8:0.29502333 9:0.230212 10:0.18207733 11:0.44922333 12:0.062155 13:0.314465 
-0.03125 0.03125 1:0.3763176 2:0.499712 3:0.64518 4:0.11929 5:0.1487172 6:0.23846467 7:0.59289933 8:0.53375933 9:0.488508 10:0.325056 11:0.51587333 12:0.20206222 13:0.40720778 
-0.03125 0.03125 1:0.2996904 2:0.434848 3:0.574272 4:0.2330836 5:0.2513328 6:0.63169933 7:0.70359333 8:0.113596 9:0.094646667 10:0.299202 11:0.34300333 12:0.30891722 13:0.21806167 
-0.03125 0.03125 1:0.208548 2:0.2631196 3:0.423336 4:0.0637336 5:0.1539524 6:0.109042 7:0.47527467 8:0.29577733 9:0.282504 10:0.19533933 11:0.35642 12:0.34260278 13:0.49795833 
-0.03125 0 1:0.2464864 2:0.3108796 3:0.3591328 4:0.1887384 5:0.2389404 6:0.14 7:0.53882933 8:0.16234733 9:0.019366 10:0.069938 11:0.27512367 12:0.050533889 13:0.35175444 
-0.03125 0.03125 1:0.3884968 2:0.456704 3:0.5347 4:0.16779 5:0.183958 6:0.171344 7:0.64426867 8:0.405742 9:0.38680867 10:0.23396867 11:0.41754 12:0.070753333 13:0.38578944 
-0.03125 -0.03125 1:0.3126532 2:0.4457 3:0.757056 4:0.472976 5:0.484892 6:0.69134 7:0.74577333 8:0.61269667 9:0.663168 10:0.64383 11:0.53226 12:0.63586667 13:0.31727611 
-0.03125 -0.03125 1:0.250402 2:0.442276 3:0.456256 4:0.1724016 5:0.2988056 6:0.58380667 7:0.59694067 8:0.14569533 9:0.16730333 10:0.32961133 11:0.21808667 12:0.35081944 13:0.18271111 
-0.03125 -0.03125 1:0.1595396 2:0.2957808 3:0.3610096 4:0.1154696 5:0.1637316 6:0.53259933 7:0.39961267 8:0.19268667 9:0.23587333 10:0.31681533 11:0.17948533 12:0.72106111 13:0.083042778 
-0.03125 -0.03125 1:0.276946 2:0.42554 3:0.552072 4:0.0758992 5:0.1224304 6:0.51952733 7:0.459356 8:0.36763333 9:0.34702467 10:0.35311667 11:0.39746 12:0.46400611 13:0.21601389 
-0.03125 -0.03125 1:0.3616708 2:0.434712 3:0.620828 4:0.1037504 5:0.1194776 6:0.30505867 7:0.48194333 8:0.43045067 9:0.405512 10:0.269347 11:0.42665333 12:0.100125 13:0.064343889 
-0.03125 -0.03125 1:0.3839816 2:0.630216 3:0.644552 4:0.202714 5:0.243208 6:0.49574133 7:0.71289333 8:0.32675267 9:0.27166667 10:0.32334067 11:0.45353333 12:0.022645667 13:0.30694389 
-0.03125 -0.03125 1:0.3180436 2:0.512112 3:0.769576 4:0.2421604 5:0.2827484 6:0.67229333 7:0.75255333 8:0.46269 9:0.47841067 10:0.52943333 11:0.54878 12:0.60379444 13:0.31535611 
-0.03125 -0.03125 1:0.3648844 2:0.454468 3:0.605388 4:0.2034328 5:0.2470096 6:0.6427 7:0.62014867 8:0.29430333 9:0.19645867 10:0.30992033 11:0.35013667 12:0.30475222 13:0.11154 
-0.03125 -0.03125 1:0.3436272 2:0.515324 3:0.788052 4:0.3236744 5:0.366026 6:0.69924667 7:0.74184667 8:0.531358 9:0.504028 10:0.58356667 11:0.53236 12:0.5802 13:0.29464167 
-0.03125 -0.03125 1:0.3481152 2:0.516708 3:0.568328 4:0.1351884 5:0.296666 6:0.589024 7:0.50861733 8:0.39267933 9:0.31369867 10:0.4058 11:0.228539 12:0.38803278 13:0.0032912167 
-0.03125 -0.03125 1:0.3120764 2:0.513688 3:0.693036 4:0.2393664 5:0.2501048 6:0.68315333 7:0.63550467 8:0.44114667 9:0.42425733 10:0.52345667 11:0.48680667 12:0.58543889 13:0.30245333 
-0.03125 -0.03125 1:0.2605388 2:0.419392 3:0.468496 4:0.1918364 5:0.2443768 6:0.360624 7:0.58809467 8:0.26624733 9:0.32382133 10:0.171431 11:0.41086667 12:0.066417778 13:0.47660333 
-0.03125 -0.03125 1:0.3386092 2:0.509624 3:0.796476 4:0.1659608 5:0.2864888 6:0.67653333 7:0.76442667 8:0.493716 9:0.415392 10:0.49655667 11:0.53828667 12:0.54816778 13:0.27240444 
-0.03125 -0.03125 1:0.3133876 2:0.458788 3:0.516752 4:0.1940824 5:0.2258312 6:0.27303533 7:0.64698467 8:0.372872 9:0.343892 10:0.23787167 11:0.46884 12:0.16496333 13:0.49794889 
-0.03125 -0.03125 1:0.311574 2:0.554056 3:0.643184 4:0.1160192 5:0.1748508 6:0.603524 7:0.59049867 8:0.33407467 9:0.30842067 10:0.40793667 11:0.39701 12:0.28365278 13:0.015160333 
-0.03125 -0.03125 1:0.3506432 2:0.517048 3:0.731416 4:0.1347548 5:0.2474748 6:0.67556 7:0.63816867 8:0.44830933 9:0.42295067 10:0.4542 11:0.50549 12:0.52646056 13:0.26598722 
-0.03125 -0.03125 1:0.3612572 2:0.521592 3:0.628288 4:0.2011624 5:0.2382552 6:0.63635067 7:0.47227467 8:0.37033133 9:0.37234867 10:0.43861 11:0.35513667 12:0.44588833 13:0.12106 
-0.03125 -0.03125 1:0.260132 2:0.519804 3:0.563948 4:0.1929944 5:0.1933744 6:0.62035267 7:0.53504867 8:0.28931 9:0.29253733 10:0.44705 11:0.33347 12:0.46876778 13:0.14609056 
-0.03125 -0.03125 1:0.314574 2:0.516276 3:0.772852 4:0.347688 5:0.3508888 6:0.71732 7:0.76384667 8:0.52742 9:0.58168133 10:0.60574 11:0.53982 12:0.62841667 13:0.31250611 
-0.03125 -0.03125 1:0.3892944 2:0.56512 3:0.83878 4:0.2081964 5:0.2230948 6:0.68409333 7:0.74965333 8:0.48468533 9:0.42806333 10:0.49219667 11:0.56211 12:0.47436944 13:0.20634833 
-0.03125 -0.03125 1:0.2281536 2:0.2960216 3:0.3891452 4:0.1733664 5:0.2090388 6:0.493322 7:0.275596 8:0.13842333 9:0.065009067 10:0.266042 11:0.150248 12:0.42364 13:0.0092572778 
-0.03125 -0.03125 1:0.3977008 2:0.619224 3:0.838804 4:0.21042 5:0.2242136 6:0.74094667 7:0.73581333 8:0.49891867 9:0.47069 10:0.54734 11:0.57392 12:0.49734833 13:0.23329889 
-0.03125 -0.03125 1:0.3595048 2:0.52864 3:0.558844 4:0.2274756 5:0.2718096 6:0.62456933 7:0.48137733 8:0.33450067 9:0.38457267 10:0.43463667 11:0.25017267 12:0.42086389 13:0.020470333 
-0.03125 -0.03125 1:0.3384228 2:0.524348 3:0.614588 4:0.1186876 5:0.1815484 6:0.584344 7:0.47571 8:0.48786267 9:0.38666267 10:0.44117333 11:0.39080667 12:0.45364 13:0.17370056 
-0.03125 -0.03125 1:0.3758104 2:0.627424 3:0.638148 4:0.2146236 5:0.2365196 6:0.67510667 7:0.49678267 8:0.334646 9:0.30158667 10:0.45904 11:0.33624667 12:0.33608611 13:0.031803222 
-0.03125 -0.03125 1:0.3185004 2:0.558968 3:0.57154 4:0.2380668 5:0.2879752 6:0.49441267 7:0.62627133 8:0.23212533 9:0.184934 10:0.22673433 11:0.40529667 12:0.00039846056 13:0.32380667 
-0.03125 -0.03125 1:0.2619056 2:0.450128 3:0.515764 4:0.159166 5:0.17518 6:0.61914467 7:0.46636467 8:0.23975867 9:0.192792 10:0.36860333 11:0.28397733 12:0.42325944 13:0.0119875 
-0.03125 -0.03125 1:0.2320244 2:0.3241684 3:0.505 4:0.2130156 5:0.2191428 6:0.437512 7:0.478794 8:0.17501867 9:0.20844933 10:0.29667067 11:0.24976033 12:0.44505389 13:0.065752222 
-0.03125 -0.03125 1:0.3300572 2:0.500532 3:0.775224 4:0.442508 5:0.445272 6:0.73566667 7:0.74616 8:0.529838 9:0.57066933 10:0.62789333 11:0.50455667 12:0.58834444 13:0.28427111 
-0.03125 -0.03125 1:0.1512596 2:0.1694936 3:0.3754612 4:0.2130452 5:0.2548092 6:0.46469467 7:0.47780733 8:0.19713067 9:0.25582333 10:0.310262 11:0.111033 12:0.85149444 13:0.058259444 
-0.03125 -0.03125 1:0.3570052 2:0.471984 3:0.477088 4:0.2382264 5:0.2414888 6:0.42378067 7:0.366934 8:0.25327 9:0.339734 10:0.30880633 11:0.19969833 12:0.28209444 13:0.039619722 
-0.03125 -0.03125 1:0.2156572 2:0.488512 3:0.58358 4:0.00725208 5:0.042326 6:0.60283333 7:0.62914867 8:0.35895333 9:0.367544 10:0.41098 11:0.47984333 12:0.72050556 13:0.40617333 
-0.03125 -0.03125 1:0.339624 2:0.54924 3:0.752464 4:0.413768 5:0.429592 6:0.72212 7:0.68808 8:0.56991 9:0.64201867 10:0.64018333 11:0.50291 12:0.58308333 13:0.29543167 
-0.03125 -0.03125 1:0.3381188 2:0.466764 3:0.561916 4:0.207428 5:0.2130772 6:0.67648 7:0.50076933 8:0.21781867 9:0.22328067 10:0.33120867 11:0.30199367 12:0.32161333 13:0.090626111 
-0.03125 -0.03125 1:0.2571664 2:0.2909832 3:0.4679 4:0.1453184 5:0.2270464 6:0.59728 7:0.409178 8:0.190058 9:0.052460467 10:0.24098967 11:0.219358 12:0.41561111 13:0.10418444 
-0.03125 -0.03125 1:0.2632864 2:0.275502 3:0.427264 4:0.1472728 5:0.2462072 6:0.38282933 7:0.27611067 8:0.19714667 9:0.0428038 10:0.192832 11:0.150886 12:0.30402 13:0.0015834944 
-0.03125 -0.03125 1:0.120868 2:0.270118 3:0.2915912 4:0.16043 5:0.213408 6:0.377818 7:0.41257733 8:0.21724333 9:0.30869067 10:0.29740767 11:0.065994667 12:0.60731111 13:0.016093722 
-0.03125 -0.03125 1:0.3388128 2:0.392674 3:0.468148 4:0.1148772 5:0.1654196 6:0.23577 7:0.23107267 8:0.376804 9:0.29887533 10:0.222177 11:0.26280967 12:0.064570556 13:0.010263111 
-0.03125 -0.03125 1:0.386384 2:0.561924 3:0.839144 4:0.1785912 5:0.2236352 6:0.69771333 7:0.75602 8:0.45538867 9:0.508406 10:0.48539667 11:0.59760667 12:0.48671444 13:0.23484611 
-0.03125 -0.03125 1:0.3355404 2:0.3996484 3:0.5651 4:0.199884 5:0.2189876 6:0.54938067 7:0.55869867 8:0.23883133 9:0.20123933 10:0.24365133 11:0.32313033 12:0.25404222 13:0.12417444 
-0.03125 -0.03125 1:0.3882868 2:0.61048 3:0.831504 4:0.1709356 5:0.173222 6:0.74498 7:0.7387 8:0.479836 9:0.44037 10:0.50755667 11:0.57937333 12:0.45206333 13:0.19044278 
-0.03125 -0.03125 1:0.2562988 2:0.513236 3:0.641856 4:0.02330004 5:0.0494196 6:0.56039267 7:0.64601067 8:0.39904133 9:0.36236133 10:0.38651333 11:0.50412 12:0.00128625 13:0.22325 
-0.03125 -0.03125 1:0.3360524 2:0.508464 3:0.78032 4:0.3211436 5:0.3610104 6:0.72199333 7:0.74322667 8:0.50294 9:0.479874 10:0.57998333 11:0.52684667 12:0.58940556 13:0.29411611 
-0.03125 -0.03125 1:0.3274652 2:0.56168 3:0.572492 4:0.0050802 5:0.02079728 6:0.40935 7:0.64588733 8:0.53740667 9:0.53311867 10:0.46383333 11:0.46160667 12:0.0068134444 13:0.14614833 
-0.03125 -0.03125 1:0.300762 2:0.408048 3:0.58066 4:0.1131252 5:0.1627608 6:0.59574333 7:0.47585467 8:0.35185667 9:0.23440267 10:0.30892267 11:0.34826333 12:0.36260556 13:0.0038984222 
-0.03125 -0.03125 1:0.2584788 2:0.464224 3:0.492676 4:0.175264 5:0.2139032 6:0.41117133 7:0.60535133 8:0.20884667 9:0.23392067 10:0.213775 11:0.38893 12:0.015356944 13:0.39561278 
-0.03125 -0.03125 1:0.393262 2:0.570748 3:0.584272 4:0.1630316 5:0.25559 6:0.63202 7:0.32398867 8:0.41835933 9:0.33533333 10:0.43409333 11:0.301217 12:0.35669167 13:0.10258167 
-0.03125 -0.03125 1:0.3425024 2:0.50402 3:0.779372 4:0.3559044 5:0.406528 6:0.66778 7:0.72894667 8:0.54067733 9:0.59699467 10:0.58314 11:0.55093667 12:0.59823889 13:0.32017389 
-0.03125 -0.03125 1:0.1871156 2:0.45242 3:0.512524 4:0.2060624 5:0.2622232 6:0.60081933 7:0.57466067 8:0.23482933 9:0.28828 10:0.41766667 11:0.23395033 12:0.50432444 13:0.11095389 
-0.03125 -0.03125 1:0.3330824 2:0.456756 3:0.58662 4:0.2306732 5:0.2700108 6:0.59843267 7:0.47804133 8:0.37236267 9:0.36832267 10:0.43583 11:0.29746767 12:0.51422778 13:0.13281556 
-0.03125 -0.03125 1:0.3529588 2:0.552112 3:0.584728 4:0.2221036 5:0.2443964 6:0.63664867 7:0.443334 8:0.28459267 9:0.30898067 10:0.42008667 11:0.29261033 12:0.36626833 13:0.033751167 
